300 100
대통령 0.12588142 -0.027278684 -0.20211124 -0.10016178 0.09548168 -0.053200025 -0.05003762 0.09552936 0.05624133 0.0559057 -0.0059739286 -0.17872152 0.08958309 0.06359033 -0.25937006 0.04454894 0.19102637 0.22709613 -0.13211773 0.17124644 -0.01856287 0.023221007 -0.08825088 -0.09930713 -0.04525235 0.17224161 -0.07498747 -0.10655361 0.00415102 -0.10574049 -0.30562162 -0.03392773 0.020765906 0.025457293 0.11869758 0.028443845 0.11571598 -0.13970387 0.12493442 -0.12612636 0.115787186 -0.032276765 0.18119378 -0.06685702 -0.10433212 0.21315259 0.057675373 -0.006305455 0.062244672 0.04844444 -0.103257515 0.02187073 -0.21671273 -0.032045774 0.0015527076 -0.12202817 -0.09213465 -0.037158217 0.04088051 -0.0018220388 -0.0809032 -0.09215677 -0.022344794 -0.042762548 -0.0005334401 -0.24635835 0.058992717 0.14461386 0.09294115 0.018570064 0.07866804 0.02028722 0.10415807 -0.084996365 0.023843234 -0.00059828494 -0.037477914 -0.037738524 0.26762357 -0.16441126 0.024331052 -0.03403258 0.055917922 0.11311884 -0.12309786 0.16281539 0.1276505 0.02540444 -0.04942639 0.216723 -0.16586599 -0.15878426 -0.0089096725 0.07658956 0.23341185 0.015536245 -0.22738253 0.119244955 -0.072343215 0.060617942
언론 0.10957949 -0.0083065955 -0.14089657 -0.0574104 0.0421167 -0.03554515 -0.03652349 0.051482912 0.041898463 0.06767964 -0.0044777547 -0.14768805 0.08898992 0.059364267 -0.19786616 0.043496605 0.1435931 0.1742116 -0.09877392 0.11313704 -0.025599794 0.040996864 -0.07677654 -0.08035428 -0.038161334 0.13497348 -0.08268674 -0.07428552 -0.020844104 -0.07594954 -0.23650146 -0.018167913 0.03268607 0.031616222 0.06570404 0.01703962 0.08743401 -0.11831032 0.0890771 -0.069560625 0.09464161 -0.0034422337 0.1177895 -0.05934969 -0.061540704 0.13170803 0.0581744 0.0056620045 0.07247796 0.032962717 -0.08855337 -0.006960356 -0.18645297 -0.029246245 -0.020626485 -0.08473105 -0.020685052 -0.01818913 0.038359843 -0.017391386 -0.04955457 -0.05895501 0.0063127624 -0.03418024 -0.015796201 -0.16829325 0.044470824 0.1276496 0.07719472 0.026288673 0.0337554 0.041548476 0.07029702 -0.058340047 0.04598458 -0.015127545 -0.03999909 -0.028678935 0.17929637 -0.10969069 0.008531843 -0.013443835 0.03225456 0.08233349 -0.09709353 0.122572325 0.08619821 0.023860758 -0.025656158 0.154483 -0.14573625 -0.13621603 -0.012648794 0.051518057 0.15887545 0.031463437 -0.16783959 0.09368896 -0.055398703 0.020211382
후보 0.12444543 -0.01724668 -0.23322351 -0.097704604 0.097069085 -0.052276894 -0.06613049 0.10540621 0.077672094 0.08037878 -0.02440096 -0.19080245 0.098672576 0.07559554 -0.29319248 0.056073304 0.22843957 0.26169217 -0.14336193 0.19269767 -0.036321227 0.047592938 -0.093720116 -0.11805309 -0.05331968 0.20564601 -0.07706023 -0.133584 -0.011646041 -0.12763445 -0.34535843 -0.036129132 0.029480333 0.022186277 0.1359477 0.040292777 0.13335815 -0.15107076 0.15213625 -0.1522672 0.12957355 -0.02368939 0.22278951 -0.069537394 -0.12313347 0.23334266 0.07570096 -0.013944153 0.07280112 0.04851665 -0.10554508 0.014984786 -0.244712 -0.025785912 0.0013864471 -0.1300143 -0.10534203 -0.025741166 0.034920778 -0.013306274 -0.089640364 -0.096470155 -0.019339597 -0.03277939 0.01952457 -0.27592394 0.07808288 0.17077903 0.09753337 0.010333439 0.09138469 0.042164303 0.08883817 -0.09106357 0.04300373 0.0022809117 -0.045551367 -0.049293064 0.29675195 -0.1834415 0.027466452 -0.051533375 0.064147845 0.1127999 -0.13091125 0.19015951 0.13208511 0.04543527 -0.056561 0.27060798 -0.1838572 -0.17260426 -0.005856956 0.106209315 0.2701929 0.016569328 -0.25817844 0.13584165 -0.079364866 0.06890829
훈련 0.13468067 -0.020724284 -0.17968602 -0.09711944 0.068445414 -0.04421647 -0.03016959 0.07401615 0.033677984 0.064617485 0.0041854414 -0.18170801 0.09267621 0.08371713 -0.25392368 0.0348118 0.185925 0.20817569 -0.1263529 0.14842385 -0.008644369 0.036584374 -0.08635628 -0.09484473 -0.05597087 0.1530756 -0.09733651 -0.09321185 -0.020643298 -0.100748986 -0.2728118 -0.023288352 0.04136672 0.024225382 0.08897778 0.038611457 0.109937415 -0.13992938 0.12812403 -0.08612476 0.09929389 -0.024895703 0.14875059 -0.072188035 -0.078247905 0.18900767 0.057851534 -0.007954643 0.07740096 0.047235355 -0.08436299 0.0019783252 -0.19352701 -0.036101304 -0.0034081384 -0.09535754 -0.0669802 -0.013510394 0.055571586 0.002892849 -0.06416102 -0.07105943 0.0116692325 -0.04704376 0.0109554315 -0.22504304 0.038701147 0.13842893 0.07858968 0.016619718 0.063553 0.032815278 0.0969451 -0.07129481 0.03932798 -0.010949488 -0.04265333 -0.03690812 0.23289225 -0.14828221 0.02137811 -0.044485427 0.040818427 0.10498662 -0.08805592 0.14051688 0.12359505 0.033523984 -0.041334093 0.189924 -0.15743203 -0.14639826 -0.016410252 0.06335373 0.20644264 0.036330298 -0.21472614 0.11942266 -0.07110632 0.040056497
저작 0.10772279 -0.012503139 -0.13912413 -0.0521251 0.04439151 -0.03071619 -0.03594884 0.046349324 0.039149456 0.060624335 -0.011281352 -0.13277002 0.08119493 0.060012247 -0.18407658 0.032093186 0.13061102 0.15671137 -0.09125508 0.10824694 -0.021849662 0.042140473 -0.073185846 -0.07320221 -0.04241869 0.12753387 -0.07498707 -0.078457326 -0.023512136 -0.073213935 -0.21435213 -0.022446707 0.022113372 0.024494752 0.06605051 0.014382533 0.07557583 -0.10302583 0.082469314 -0.06939076 0.09358591 -0.0122572025 0.11465146 -0.055160116 -0.05850149 0.13012052 0.051477637 0.0071636857 0.05950654 0.02628678 -0.076816 -0.0019868657 -0.17108962 -0.020199792 -0.017377961 -0.08440899 -0.018833347 -0.017046485 0.031588342 -0.014767572 -0.04671914 -0.057272647 -4.620605e-05 -0.027019009 -0.01295371 -0.15333356 0.03620046 0.11755152 0.068559125 0.023512082 0.03629235 0.038117427 0.06810338 -0.057197053 0.043325998 -0.016670868 -0.036364637 -0.023384321 0.16644575 -0.108124584 0.0021652072 -0.012445301 0.033597738 0.079974815 -0.08875847 0.121985555 0.08856557 0.026220115 -0.020644272 0.13978946 -0.13459177 -0.12232537 -0.008756137 0.047142275 0.1503699 0.022815732 -0.15452088 0.07855778 -0.053896245 0.024861993
대선 0.1191865 -0.02342796 -0.21438205 -0.1057822 0.09398202 -0.056043092 -0.058777343 0.09595029 0.067008205 0.064296216 -0.027086504 -0.17388524 0.08543819 0.063965306 -0.27362588 0.048623905 0.20370471 0.24469034 -0.1351172 0.17765802 -0.032712292 0.0462328 -0.08342925 -0.10114838 -0.04835304 0.18722871 -0.06706185 -0.123644575 -0.012521418 -0.11752063 -0.31821072 -0.031057296 0.02338588 0.023309758 0.13288261 0.034222044 0.12696183 -0.1331883 0.1403 -0.12846842 0.12267759 -0.021826724 0.20105208 -0.066395 -0.11320041 0.21872973 0.07132608 -0.010438412 0.06574432 0.0358965 -0.10190914 0.01199192 -0.22594163 -0.039812084 -0.007145824 -0.12429274 -0.0928596 -0.02947205 0.031240506 -0.0056991023 -0.08965748 -0.08911766 -0.016081382 -0.029614218 0.01300505 -0.24623716 0.06120099 0.15038724 0.08938251 0.013503282 0.07375547 0.0393096 0.08695563 -0.081505075 0.032550808 0.00010664529 -0.047037568 -0.049311053 0.27949864 -0.16804904 0.024845138 -0.037410296 0.059149656 0.10962859 -0.1259629 0.17705944 0.12752965 0.040266562 -0.049453005 0.24684925 -0.16469651 -0.15418033 -0.0100718085 0.09685656 0.24918285 0.012496264 -0.237563 0.11660798 -0.080508865 0.06181517
판단 0.105182424 -0.0022164257 -0.14258067 -0.0592994 0.037194885 -0.03592142 -0.03815133 0.0453971 0.0370483 0.057887536 -0.0070015844 -0.14565827 0.07939543 0.06556281 -0.19562356 0.037684042 0.13068381 0.16673018 -0.09645625 0.103660315 -0.021793352 0.04112289 -0.081210636 -0.084567465 -0.041197356 0.13539395 -0.083997875 -0.08001164 -0.029771958 -0.07173065 -0.23120031 -0.019522633 0.025596775 0.027308073 0.06562273 0.018556908 0.085825205 -0.11171184 0.08488857 -0.069386065 0.09376569 -0.0018459943 0.11490449 -0.057429474 -0.06079898 0.12756056 0.058929786 0.012125967 0.065093994 0.03008591 -0.081008635 -0.004147559 -0.18051085 -0.019392112 -0.020706985 -0.07596498 -0.013212661 -0.0225968 0.033655375 -0.015742384 -0.056308486 -0.058981664 0.003975936 -0.035753217 -0.019232579 -0.15589239 0.0383956 0.11695241 0.07973423 0.02518552 0.029299648 0.044633042 0.06581883 -0.061470356 0.04485735 -0.015977304 -0.0466155 -0.027295113 0.16546291 -0.10598767 0.004954157 -0.010257877 0.02679021 0.08120402 -0.0963584 0.11825286 0.086516 0.019995755 -0.02164864 0.14305496 -0.13966228 -0.1315948 -0.010080896 0.044567242 0.14926177 0.02834162 -0.15645342 0.0880548 -0.05565827 0.023412768
대행 0.09394152 -0.014921895 -0.15326604 -0.084963426 0.06811501 -0.03353613 -0.030341154 0.07121213 0.03926444 0.038943477 0.0034920666 -0.14238924 0.07725994 0.060576413 -0.20972067 0.029680008 0.16010876 0.17498972 -0.0997028 0.121557906 -0.009310089 0.023414591 -0.06845642 -0.08387647 -0.043788332 0.1306003 -0.07265222 -0.07711623 -0.0065274 -0.07922778 -0.2424073 -0.015943285 0.030713882 0.02313897 0.07328547 0.01853478 0.0888835 -0.114618674 0.11110817 -0.08677987 0.09256805 -0.015995586 0.12530263 -0.051754124 -0.0724812 0.16085899 0.038417373 -0.0058953846 0.055063505 0.043391626 -0.07564176 0.009649285 -0.17660926 -0.036726262 -0.00393497 -0.092309795 -0.06924937 -0.011698231 0.039873652 -0.0031082637 -0.06536383 -0.06652965 -0.006125287 -0.033523705 0.0043551624 -0.18733671 0.043541394 0.113440454 0.061158773 0.0076195286 0.051235385 0.026070956 0.08874742 -0.0623339 0.021920951 -0.00039603972 -0.033603698 -0.031342443 0.20870663 -0.123820014 0.020875217 -0.03248434 0.04675429 0.08997691 -0.08296139 0.11947448 0.10016259 0.018735513 -0.033824828 0.16770571 -0.12792958 -0.12588944 -0.011033546 0.049113087 0.18196213 0.018140009 -0.17467196 0.09870646 -0.06330645 0.033775736
권한 0.09842964 -0.021061547 -0.14345692 -0.086569525 0.07242816 -0.037415493 -0.028766712 0.07151297 0.04083602 0.03485042 0.0038457008 -0.13883153 0.06851071 0.061534576 -0.20314696 0.027801083 0.16125129 0.17294767 -0.10051478 0.116192855 -0.008091972 0.020031411 -0.06972692 -0.07952727 -0.044302758 0.12708125 -0.07597663 -0.07522513 -0.0042524696 -0.07391578 -0.23256019 -0.018526578 0.030873984 0.01666408 0.07421904 0.024203476 0.09154176 -0.10833351 0.106652625 -0.07736118 0.0792673 -0.024316845 0.11304602 -0.047666285 -0.06714639 0.16309293 0.038474463 -0.00819449 0.059321724 0.049117412 -0.07698437 0.012414995 -0.16945677 -0.025710566 0.0041066995 -0.08007941 -0.06791915 -0.019800883 0.044010594 -0.0011101904 -0.061809752 -0.056275804 -0.011261658 -0.029683048 0.0013958325 -0.18198611 0.04082969 0.10647122 0.0636888 0.003413531 0.05919702 0.025282333 0.0807082 -0.054366417 0.021047141 -0.00095096667 -0.02871624 -0.030864455 0.1945949 -0.1202983 0.023404973 -0.032299913 0.040946282 0.08791115 -0.085596055 0.11255994 0.102170415 0.0213054 -0.036167663 0.15565223 -0.12679256 -0.11344535 -0.016312256 0.056531254 0.17848556 0.022436384 -0.1632756 0.09988472 -0.06038963 0.03690951
통신사 0.09984145 -0.007169691 -0.13664123 -0.059198137 0.046187434 -0.027466966 -0.035125986 0.04677334 0.037345774 0.05177036 -0.0075147036 -0.13386723 0.070057325 0.0571915 -0.17942485 0.034760986 0.12707551 0.15537825 -0.08852349 0.09914318 -0.020075783 0.03205045 -0.07415689 -0.07804583 -0.03729549 0.12747686 -0.062563166 -0.07120697 -0.022607328 -0.06855915 -0.2035437 -0.01709271 0.022218011 0.0254317 0.06305586 0.014869734 0.07221065 -0.10738527 0.086627364 -0.06942151 0.0819041 -0.0061606267 0.11146358 -0.0507508 -0.06615697 0.12142171 0.051686216 0.0019516308 0.059886657 0.031641793 -0.07373447 0.0026445643 -0.15755521 -0.019856924 -0.011293998 -0.07074936 -0.023806851 -0.02144075 0.03652493 -0.01062669 -0.053844564 -0.059000947 0.0044444357 -0.027216665 -0.010023037 -0.15044366 0.03051787 0.11272401 0.068969585 0.022355944 0.033287264 0.030166863 0.066650786 -0.0519263 0.04179121 -0.013505535 -0.036058877 -0.02315074 0.15988658 -0.10408852 0.0057174517 -0.018140152 0.031082243 0.073668174 -0.08836074 0.10991396 0.07907487 0.023058157 -0.026118599 0.13739686 -0.12152115 -0.12033581 -0.009283923 0.049079984 0.14718206 0.021837479 -0.1544859 0.07921526 -0.04414902 0.02549841
황교안 0.08920463 -0.02222926 -0.13911761 -0.0743238 0.070034124 -0.03077615 -0.026751945 0.061991043 0.031880602 0.03470422 0.00499086 -0.13295628 0.0711061 0.05514027 -0.19060975 0.032546785 0.15367246 0.16127189 -0.09865606 0.111601636 -0.01597532 0.017628709 -0.06103622 -0.08110483 -0.044551343 0.11912878 -0.07178347 -0.06909899 -0.0111421 -0.07354084 -0.21746051 -0.017806346 0.025009992 0.020273685 0.06888882 0.019367732 0.08746961 -0.10882547 0.098974414 -0.076567024 0.08221062 -0.015573064 0.110760756 -0.04426403 -0.070219584 0.14767025 0.03422043 -0.009004602 0.05793417 0.043548565 -0.06860359 0.009517165 -0.1557632 -0.028747708 -0.0072813816 -0.07858481 -0.061018173 -0.010487982 0.03595145 -0.0008638248 -0.05827901 -0.05045161 -0.012496774 -0.035931762 0.005123599 -0.17499122 0.035923187 0.1074101 0.053698044 0.0139946565 0.05586914 0.02323765 0.082544066 -0.051857132 0.02023905 0.0019321719 -0.027683558 -0.022772593 0.1898153 -0.1138836 0.015265965 -0.024176542 0.039440252 0.082747675 -0.07244113 0.10385649 0.09423328 0.021636384 -0.03499856 0.15300134 -0.120834485 -0.11630146 -0.015851494 0.04667975 0.1664611 0.02171886 -0.16194904 0.09029035 -0.053713314 0.031183785
가치 0.11447813 -0.00293034 -0.1430146 -0.060989268 0.04436097 -0.029261023 -0.038888056 0.04892162 0.044704445 0.061089095 0.0022704545 -0.1464433 0.082617186 0.06770961 -0.1993357 0.03963162 0.14328334 0.1645387 -0.093896694 0.10676978 -0.017698264 0.033975847 -0.08316083 -0.08409126 -0.038771026 0.13662513 -0.08687252 -0.07476717 -0.023440866 -0.067577966 -0.23219466 -0.015913561 0.031203294 0.025156297 0.067845955 0.02184882 0.0881257 -0.11754311 0.09108435 -0.064648636 0.09348392 -0.008806585 0.10712562 -0.06264658 -0.059383024 0.1301674 0.051524684 0.0077096485 0.07442313 0.032948717 -0.0790542 -0.0083234785 -0.18081936 -0.02484178 -0.021785187 -0.08548067 -0.019767366 -0.018265788 0.032416604 -0.014232183 -0.05002655 -0.055503182 0.0027587085 -0.027559599 -0.01591753 -0.15615866 0.036393106 0.12066864 0.07604681 0.025673585 0.027152756 0.041737244 0.07659775 -0.060084093 0.0465492 -0.018682709 -0.045896992 -0.020143775 0.17052555 -0.10970165 0.0033047805 -0.012180857 0.024660677 0.08110425 -0.09580424 0.12411777 0.083485216 0.026347637 -0.027821155 0.14545797 -0.13576376 -0.12927589 -0.008924287 0.05318321 0.15999061 0.02434529 -0.15669604 0.082263164 -0.055290103 0.022607889
화제 0.112217404 -0.0011486779 -0.14842793 -0.05811004 0.043427646 -0.033353616 -0.03061016 0.04624276 0.04337112 0.062543705 -0.004376369 -0.15050615 0.091926955 0.06685356 -0.19991429 0.035393994 0.13654852 0.17547187 -0.10003586 0.10794535 -0.024314826 0.040900078 -0.07643503 -0.0853974 -0.0443458 0.13911869 -0.08213965 -0.08088564 -0.031184833 -0.06823326 -0.23605452 -0.013866837 0.022671299 0.036660668 0.06201282 0.021774745 0.07946299 -0.12127891 0.08654015 -0.066663064 0.09054343 -0.0034156363 0.10531026 -0.061433133 -0.06790827 0.12996937 0.06138253 0.010336963 0.06956384 0.031018548 -0.08627161 -0.005708196 -0.1856857 -0.029689029 -0.01998133 -0.08009589 -0.009686118 -0.018186966 0.039406925 -0.013188197 -0.05690032 -0.06181326 0.0045248466 -0.032610744 -0.011003305 -0.15710151 0.03823727 0.12877788 0.07608046 0.020444924 0.027582433 0.04035572 0.06833229 -0.055429198 0.043892153 -0.0150731485 -0.04255234 -0.022860073 0.17280424 -0.116921805 0.005766036 -0.016097141 0.031258073 0.08778076 -0.10057033 0.11854921 0.08987147 0.01777241 -0.022625709 0.14456972 -0.14744242 -0.1381616 -0.008683286 0.05051895 0.16267216 0.02813256 -0.15826926 0.089871496 -0.050584853 0.020018471
국무총리 0.09024425 -0.016202262 -0.14743617 -0.084148005 0.06866067 -0.036985245 -0.024450919 0.06256443 0.039030034 0.040573284 0.0061389385 -0.14519629 0.07268997 0.06212232 -0.20446254 0.02606316 0.1527447 0.17162822 -0.10384409 0.114054956 -0.008123653 0.02123942 -0.062454276 -0.076084025 -0.04546731 0.1269647 -0.07840727 -0.06929324 -0.012926899 -0.078216724 -0.23490514 -0.019311106 0.031026114 0.016899645 0.06514763 0.020955047 0.09161603 -0.111662716 0.103661425 -0.078284666 0.08394098 -0.021927258 0.1126381 -0.053366803 -0.074864104 0.15708408 0.035665996 -0.008427855 0.06476459 0.048982333 -0.07898817 0.0028435711 -0.17299753 -0.03544208 -0.004241093 -0.08407623 -0.062885225 -0.008266181 0.043044746 -0.00410002 -0.06372613 -0.057459798 -0.004772605 -0.030898677 0.0054512555 -0.18248567 0.04434898 0.11438354 0.055631857 0.003950456 0.055913046 0.021443522 0.08659896 -0.061775833 0.02688601 -0.0012513874 -0.024908045 -0.027938697 0.20174813 -0.12173089 0.022881456 -0.02867547 0.042397693 0.086852364 -0.081630565 0.11891928 0.09558245 0.017111467 -0.03689064 0.1561912 -0.12275184 -0.12509093 -0.017967263 0.05346108 0.17638569 0.023819895 -0.16665074 0.09715919 -0.057163768 0.032081842
상부 0.10758551 -0.009174776 -0.13204591 -0.052110534 0.035923082 -0.025952084 -0.03704113 0.048195936 0.037836112 0.06638416 0.00032314763 -0.13895525 0.08183179 0.055046126 -0.18751323 0.02933314 0.12771605 0.1609158 -0.09114956 0.09974218 -0.02178036 0.0420203 -0.07766263 -0.069862664 -0.041960184 0.12585913 -0.075026214 -0.07809942 -0.02339871 -0.07389378 -0.22088856 -0.013058944 0.027223324 0.029847063 0.06819101 0.016477574 0.07907942 -0.11086022 0.08696066 -0.060348414 0.0905675 -0.0001317399 0.103362024 -0.054916296 -0.05800378 0.12439459 0.055769306 0.01325589 0.06707944 0.028932944 -0.07355122 -0.008423615 -0.17381497 -0.025148524 -0.015172088 -0.08137032 -0.014872554 -0.015384404 0.033880353 -0.013004794 -0.050303403 -0.060578965 0.0037723174 -0.02654012 -0.005220972 -0.14775212 0.03160575 0.11719662 0.07188657 0.025804702 0.031852018 0.043820553 0.06504895 -0.055946432 0.04767326 -0.009667201 -0.04283266 -0.01660492 0.16709393 -0.105102226 0.0019862948 -0.019849235 0.02692031 0.07970197 -0.08540604 0.11268894 0.0783825 0.018324314 -0.020114392 0.13535193 -0.13571869 -0.120733716 -0.014267965 0.048804983 0.14632878 0.030163726 -0.15576443 0.07870444 -0.046084184 0.02543937
적극 0.104759924 -0.0051451237 -0.13398826 -0.056014553 0.033705328 -0.027090015 -0.031081604 0.04143232 0.033163693 0.06377886 -0.0028564131 -0.1324202 0.07736559 0.05161912 -0.17709284 0.033004876 0.12112384 0.16023907 -0.091388986 0.10394823 -0.025530534 0.0421403 -0.06701065 -0.07650777 -0.042098336 0.12957142 -0.075106435 -0.072324105 -0.02210216 -0.06395482 -0.21144058 -0.014517202 0.019696208 0.023848496 0.0620986 0.016666517 0.07363252 -0.111217506 0.079148486 -0.0690331 0.08414522 -0.0013452551 0.10638192 -0.056902956 -0.05453093 0.11704352 0.051556304 0.0046093483 0.06041279 0.025712758 -0.080797605 -0.010619459 -0.1696455 -0.020284643 -0.016039345 -0.07223613 -0.014672924 -0.020990713 0.034024376 -0.010657669 -0.04435663 -0.058320552 0.0044295774 -0.029981023 -0.011933336 -0.15235856 0.030053964 0.11367295 0.07451532 0.016541986 0.023163328 0.035370763 0.061938953 -0.052537777 0.043451093 -0.014094428 -0.044891935 -0.01702963 0.15889433 -0.10530503 0.011255876 -0.011593822 0.023935676 0.071400486 -0.09254369 0.11666722 0.07627726 0.01679447 -0.026970007 0.13778646 -0.12897588 -0.12269778 -0.008247033 0.043038864 0.14651704 0.028914995 -0.14772038 0.073890895 -0.04346461 0.01945924
반영 0.10043992 -0.0014705118 -0.13904765 -0.05081864 0.031874623 -0.03276349 -0.03950035 0.04569128 0.041575093 0.06545015 -0.0053552487 -0.13223606 0.07654335 0.06078574 -0.17412446 0.032768782 0.122462854 0.16016419 -0.087091304 0.105876766 -0.017691405 0.041091435 -0.074207135 -0.07775242 -0.038080934 0.12531985 -0.06956071 -0.07412977 -0.023309357 -0.07209598 -0.21548167 -0.012921547 0.027418511 0.020557974 0.05940398 0.011556904 0.07045064 -0.10144068 0.08301134 -0.069526464 0.08854052 -0.007328216 0.10122104 -0.059074204 -0.0616524 0.11455817 0.057731744 0.007253496 0.05554209 0.024159754 -0.07578594 -0.010400235 -0.16705157 -0.024681725 -0.01726648 -0.070206545 -0.014313396 -0.01456633 0.036286693 -0.008212365 -0.046208058 -0.05758106 -1.711461e-05 -0.023841674 -0.011210919 -0.1426283 0.028841112 0.11723786 0.071059115 0.02123001 0.023792345 0.03842625 0.06781176 -0.05042728 0.040872935 -0.018277805 -0.042568643 -0.024588063 0.1577849 -0.10023812 0.010287429 -0.008945026 0.027269222 0.075958095 -0.091685146 0.10980691 0.08353166 0.025025962 -0.021440597 0.14009318 -0.12785842 -0.11974292 -0.013334591 0.04494174 0.14991626 0.02880274 -0.15046713 0.07229195 -0.043720737 0.02224014
진환 0.08484287 -0.020370651 -0.13887821 -0.08025322 0.06767271 -0.030428553 -0.030243242 0.0652491 0.04079859 0.043116387 0.0010947176 -0.13187993 0.068917476 0.048751798 -0.18988702 0.030266585 0.15202011 0.15697713 -0.09116904 0.11425298 -0.015175291 0.025471047 -0.06261568 -0.076749824 -0.037195634 0.11834659 -0.06523599 -0.074589595 -0.0032453178 -0.07359898 -0.22081693 -0.019048955 0.024321776 0.017953927 0.07390927 0.019627737 0.08661548 -0.104870185 0.09390943 -0.08143307 0.080093995 -0.018933512 0.11624034 -0.04605613 -0.067655794 0.15614358 0.03916082 -0.009250782 0.05241872 0.04156758 -0.068271674 0.011046579 -0.16021392 -0.030861087 0.0030741692 -0.08677875 -0.065879755 -0.017713891 0.029474651 -0.00053593155 -0.06367589 -0.05636079 -0.0142187495 -0.0250444 0.002195515 -0.17030701 0.042216502 0.10933344 0.061369892 0.0066034044 0.050908513 0.02515543 0.07683293 -0.056988124 0.021418532 -0.0052286824 -0.031041142 -0.026497187 0.1903471 -0.1123644 0.018559273 -0.025348114 0.037746087 0.08037453 -0.07640431 0.11219628 0.098103926 0.01870056 -0.03811837 0.15358044 -0.11822865 -0.11328634 -0.008048597 0.047875196 0.1665467 0.01983217 -0.15904589 0.08610921 -0.05644682 0.035705715
회의 0.10865173 -0.0119451145 -0.16199486 -0.07698021 0.06600918 -0.037600048 -0.029497128 0.061743453 0.049264353 0.05225326 0.005023802 -0.16148183 0.093988806 0.06697788 -0.21801779 0.040243443 0.15784337 0.19203553 -0.109712996 0.117860615 -0.018854797 0.024074314 -0.08175681 -0.08428688 -0.046509624 0.13889703 -0.08902386 -0.0805664 -0.019084249 -0.076003246 -0.26308507 -0.017768156 0.018540105 0.03681364 0.068851404 0.016531382 0.09649384 -0.12933356 0.0993821 -0.09297445 0.09560712 -0.012499943 0.12575582 -0.053170647 -0.06783213 0.15229528 0.05100965 0.0024459693 0.07106686 0.04016965 -0.08658227 -0.006562015 -0.1978068 -0.03298952 -0.012892847 -0.101601265 -0.036405746 -0.015445588 0.037100956 -0.0032231852 -0.07114051 -0.07022401 -0.011448225 -0.038277823 -0.013753708 -0.18354268 0.048429083 0.13228378 0.080597825 0.017879117 0.043576147 0.039710328 0.079962045 -0.06220569 0.040800195 -0.011449009 -0.043582138 -0.035768513 0.20518334 -0.12735417 0.014080718 -0.018440448 0.037743177 0.0879691 -0.09776582 0.1297937 0.09762296 0.020527503 -0.028032178 0.17094792 -0.15530945 -0.14479032 -0.023160743 0.053381544 0.17922176 0.015933262 -0.17936175 0.10363059 -0.066098206 0.02218868
정부 0.10923238 -0.007369274 -0.17889996 -0.07743839 0.06827507 -0.038798966 -0.04171009 0.07388882 0.05784631 0.0595278 -0.012387304 -0.16711718 0.08980373 0.06817477 -0.23044083 0.044556536 0.17629959 0.19808784 -0.11161402 0.13821001 -0.026610237 0.030223772 -0.08216264 -0.09067402 -0.046219587 0.15291847 -0.08412949 -0.09642378 -0.01784277 -0.085672684 -0.28230068 -0.030326135 0.017476825 0.024296856 0.093812525 0.019078577 0.10353733 -0.12696162 0.11604714 -0.10239516 0.10219441 -0.019783055 0.15256421 -0.0614928 -0.08758731 0.1788215 0.04979482 0.0059673637 0.074610665 0.04836666 -0.09538161 -0.0014996334 -0.20568489 -0.021918813 -0.012525053 -0.10780919 -0.050654694 -0.0256001 0.038394354 -0.000591311 -0.07625378 -0.07771929 -0.0107637085 -0.037026767 -0.007956474 -0.20693807 0.05245222 0.13805966 0.0884231 0.02493108 0.046302825 0.03154792 0.08557895 -0.06947902 0.0424181 -0.005395626 -0.038435597 -0.038833812 0.2275482 -0.14128049 0.019962441 -0.02638298 0.041793738 0.08976077 -0.10893279 0.14076407 0.11133297 0.024192117 -0.03214311 0.1862315 -0.1644409 -0.14365561 -0.020393265 0.061078295 0.19781573 0.017296094 -0.19984645 0.11213208 -0.07003803 0.042018153
포천 0.09539026 -0.015210123 -0.13480051 -0.08504874 0.06737238 -0.029389827 -0.020650998 0.066169195 0.027819086 0.03459185 0.009270749 -0.13467619 0.06895795 0.055560358 -0.19938314 0.029783756 0.15566412 0.15716219 -0.09365297 0.10876201 -0.0003146851 0.028765215 -0.06841519 -0.07860694 -0.0455397 0.115540415 -0.06654539 -0.07094483 -0.0062319566 -0.072322115 -0.2109107 -0.018906571 0.027867112 0.0127272 0.06510261 0.02882257 0.08589439 -0.10293583 0.1028463 -0.07248193 0.079102255 -0.015720585 0.11319067 -0.045751266 -0.07162713 0.15439743 0.040356494 -0.008226731 0.053102553 0.04739205 -0.063653454 0.0061918576 -0.15588267 -0.032503933 0.0010519369 -0.07282271 -0.06370965 -0.011304801 0.04715943 0.00040716643 -0.055416897 -0.04824659 0.0035943908 -0.03779197 0.0088352645 -0.17282653 0.030734207 0.10260821 0.0584369 0.008798309 0.057129 0.029805826 0.08363856 -0.055159587 0.026285501 0.00018190569 -0.02858662 -0.022123747 0.18176724 -0.115871266 0.019308979 -0.0353303 0.038707856 0.07919969 -0.06901355 0.10179327 0.0985587 0.016695695 -0.03287069 0.14364283 -0.11934871 -0.112130925 -0.015049855 0.047550697 0.16865367 0.028775085 -0.16822152 0.09187588 -0.062630564 0.028801147
과학 0.11398675 -0.02345969 -0.17452995 -0.091612354 0.073929116 -0.04320646 -0.042720433 0.08005284 0.04609191 0.050229624 0.00074365234 -0.16185722 0.08041268 0.07038878 -0.23670946 0.03128035 0.1853168 0.19881384 -0.12182503 0.13289386 -0.009915188 0.030770363 -0.07667307 -0.09658192 -0.046533212 0.15427513 -0.07566667 -0.089362316 -0.01099858 -0.09242005 -0.26978937 -0.02126107 0.026100429 0.01962207 0.088365845 0.026820874 0.10620997 -0.1266938 0.1236327 -0.09935789 0.09854296 -0.021088563 0.148551 -0.0559309 -0.08997016 0.18800922 0.051003754 -0.010283644 0.06400963 0.043659598 -0.08061212 0.012602901 -0.19233544 -0.027760958 0.0012931235 -0.08878839 -0.07938199 -0.014897832 0.040574264 0.0049332604 -0.069032066 -0.0645816 -0.005998536 -0.040407408 0.01407614 -0.21515019 0.044416383 0.13335364 0.073089376 0.016285256 0.07054968 0.035145875 0.09278707 -0.06764914 0.033104368 0.001115225 -0.035533007 -0.036970854 0.22954752 -0.13750708 0.018778002 -0.039986942 0.0431276 0.09422502 -0.093923815 0.13230258 0.10889022 0.029633408 -0.04188482 0.1867312 -0.14434728 -0.13885824 -0.013398934 0.064795256 0.2073285 0.026049268 -0.20299205 0.11221601 -0.06849575 0.040533908
자택 0.1405873 -0.02869881 -0.24026038 -0.10417415 0.11001625 -0.051345725 -0.063555904 0.11999973 0.08224742 0.06522045 -0.025127694 -0.19231072 0.098802105 0.06842029 -0.2813202 0.050019585 0.21534184 0.25091797 -0.14859425 0.19331652 -0.0335277 0.028346015 -0.09648705 -0.11081076 -0.047318317 0.19832416 -0.06409716 -0.12999074 0.008098875 -0.11786592 -0.34530747 -0.0351526 0.022321485 0.021968042 0.14067538 0.04039648 0.13450833 -0.15957 0.1341892 -0.14976409 0.13444294 -0.0398626 0.20259814 -0.08268643 -0.13015862 0.23170419 0.0707894 -0.0027787408 0.068895735 0.045393284 -0.11719071 0.016125191 -0.2429194 -0.022811964 -0.0037088955 -0.13812038 -0.09503812 -0.0499456 0.044994265 0.008685396 -0.09767335 -0.114564024 -0.026578935 -0.048912562 -0.00599653 -0.2809254 0.057634138 0.15816301 0.101942085 0.02932667 0.08661962 0.024857597 0.11543375 -0.08528479 0.02754473 -0.008329834 -0.041151144 -0.04783127 0.3054961 -0.19462064 0.011969776 -0.03270429 0.06540745 0.12065126 -0.13311064 0.18234178 0.13305297 0.042252574 -0.058072925 0.25882134 -0.18201983 -0.17540856 -0.004791197 0.0947238 0.25729248 0.003263183 -0.2593789 0.13594426 -0.07965873 0.07715892
정관용 0.13238698 -0.014891731 -0.22884373 -0.1006494 0.0934337 -0.060162388 -0.06422259 0.10463374 0.07127749 0.07483579 -0.029232683 -0.19957581 0.09330038 0.07208247 -0.28570464 0.062140107 0.20900524 0.24739929 -0.15616032 0.18344583 -0.04000856 0.031814728 -0.09471058 -0.12054293 -0.05153226 0.19437605 -0.07817763 -0.13301666 -0.012910346 -0.12111979 -0.33736718 -0.038868394 0.026750127 0.019276688 0.14011453 0.029002376 0.13515112 -0.15230061 0.1467852 -0.1427033 0.12742603 -0.03231512 0.21643874 -0.06833355 -0.11943483 0.23665252 0.06936836 0.0026436385 0.07043205 0.045172226 -0.10793639 0.016286492 -0.24179973 -0.032292094 -0.0052732565 -0.13537323 -0.09354193 -0.036664445 0.03807334 -0.00032817962 -0.09216734 -0.10700866 -0.022127282 -0.03878544 0.0024202894 -0.2708429 0.06764835 0.14786476 0.10942111 0.020575052 0.080735184 0.039261043 0.10087966 -0.09082435 0.041003793 -0.010408411 -0.04000509 -0.057063736 0.2974045 -0.18405686 0.01976413 -0.036346428 0.066036694 0.10820315 -0.13574836 0.18803272 0.13971137 0.034133215 -0.05143493 0.25492886 -0.19042167 -0.15719102 -0.013478802 0.10036332 0.25909576 0.00024256518 -0.25944433 0.13742538 -0.081399776 0.07211907
투표 0.14847305 -0.03374277 -0.2626579 -0.13219053 0.10728382 -0.07541887 -0.07350634 0.1310396 0.081840806 0.069426924 -0.03549097 -0.20846882 0.10483341 0.08739451 -0.32430542 0.059972066 0.23310965 0.2907357 -0.18426336 0.20864193 -0.036848344 0.03638796 -0.1047857 -0.12506461 -0.052130517 0.21894655 -0.06751 -0.15394652 -0.0023446498 -0.15051168 -0.3869265 -0.04336683 0.021209814 0.008401986 0.16243874 0.03230568 0.15046217 -0.16781169 0.15420416 -0.16899359 0.15253477 -0.042574935 0.24454379 -0.08856227 -0.12438114 0.26034683 0.080176786 -0.012433657 0.06925019 0.047727037 -0.11602988 0.015987951 -0.2601298 -0.050343193 -0.010545589 -0.15088993 -0.11947903 -0.035860196 0.024555925 0.009126999 -0.11211545 -0.12331887 -0.027552063 -0.043849036 0.016978614 -0.29620415 0.07661711 0.18018539 0.12042003 0.0123722935 0.09549771 0.042207625 0.11769352 -0.09958144 0.047518916 -0.008617977 -0.050497424 -0.062217508 0.35164905 -0.19410399 0.028858772 -0.03428245 0.073888674 0.11997352 -0.15009317 0.21523084 0.13769095 0.041952167 -0.06618402 0.30005503 -0.20242628 -0.18578702 -0.01817355 0.11280311 0.29599965 0.013093687 -0.27968997 0.14462091 -0.09611043 0.08009174
북한 0.15132877 -0.02301495 -0.24896957 -0.1114643 0.10031286 -0.062089186 -0.06388158 0.11344933 0.08087024 0.07617571 -0.017464472 -0.20939404 0.107643336 0.098912515 -0.30366173 0.06042632 0.2365527 0.26916942 -0.16962661 0.19917242 -0.031536393 0.044557154 -0.102076285 -0.122705385 -0.05792522 0.21442485 -0.08174265 -0.14485572 -0.0029754597 -0.12628125 -0.3680809 -0.026783831 0.020520488 0.02413706 0.14337595 0.04494101 0.14032644 -0.16199392 0.16326031 -0.1479907 0.13758239 -0.034920853 0.22513463 -0.08435938 -0.11440926 0.25752136 0.07599928 -0.010056316 0.07345091 0.0553667 -0.114178255 0.010486724 -0.24943067 -0.03446491 0.00373036 -0.14306979 -0.10459284 -0.038641427 0.04395512 0.0060040164 -0.11140681 -0.11418341 -0.02016722 -0.03478111 0.010408171 -0.29602742 0.06391405 0.16164629 0.11241774 0.018321201 0.08305629 0.030809948 0.11381452 -0.090374134 0.039768208 -0.013082035 -0.044573694 -0.062444016 0.3201382 -0.19757788 0.020499885 -0.039147105 0.06963814 0.124852374 -0.13070117 0.20065553 0.1544581 0.034835763 -0.061774746 0.27213576 -0.20172352 -0.17226695 -0.012647797 0.10694786 0.2748825 0.0074215624 -0.27857834 0.15164502 -0.0913096 0.0724526
경기도 0.096304424 -0.022985479 -0.15085715 -0.078347735 0.0694168 -0.03878004 -0.031537354 0.06965367 0.037734006 0.038456433 0.0047541168 -0.14353743 0.07192973 0.065987855 -0.20483893 0.024593122 0.16371776 0.17004079 -0.10096704 0.12180237 -0.0053379703 0.027550051 -0.06970507 -0.08436439 -0.04162221 0.122632466 -0.075809985 -0.07902488 -0.0037278954 -0.0814758 -0.23232858 -0.014436596 0.0320713 0.020732902 0.07357737 0.03061561 0.09132004 -0.114541374 0.10909413 -0.0822235 0.0840354 -0.02126628 0.12030874 -0.04926502 -0.06969771 0.16194782 0.046504136 -0.007771204 0.05261444 0.045754854 -0.069260925 0.0067254845 -0.16177744 -0.036961075 -0.0016940103 -0.07396422 -0.06849544 -0.011985854 0.045867313 0.0040309126 -0.05438328 -0.056908663 0.0028348947 -0.03276628 0.009836272 -0.1846227 0.03878903 0.11279354 0.061869502 0.002507714 0.0589937 0.031009661 0.08174226 -0.05794532 0.019277498 0.004143997 -0.02708236 -0.024563598 0.19574593 -0.1166539 0.024547901 -0.034603268 0.037363864 0.08739811 -0.075330585 0.11655089 0.101991385 0.026280072 -0.0371198 0.15584941 -0.12634566 -0.121454984 -0.009102172 0.05484255 0.18177412 0.029024517 -0.17142236 0.1006928 -0.062361117 0.037498057
통합 0.113962 -0.01686424 -0.15326555 -0.081632644 0.058584347 -0.03666531 -0.022801757 0.06366778 0.023895862 0.051461298 2.200183e-05 -0.14438976 0.07771243 0.07193535 -0.21275848 0.029856166 0.16003013 0.17830211 -0.11108574 0.12016847 -0.007993043 0.037425403 -0.074452914 -0.08025225 -0.044350196 0.13170174 -0.08181378 -0.07552623 -0.0093725715 -0.07995025 -0.2297273 -0.014255085 0.037023745 0.021477861 0.06978252 0.02443254 0.08711861 -0.112752 0.10827479 -0.07813587 0.084849 -0.017014751 0.111972935 -0.05385449 -0.07596143 0.15992135 0.049354695 -0.0007862161 0.060813118 0.047900185 -0.073344246 0.007956307 -0.1605955 -0.030708406 0.0034872212 -0.07189386 -0.056092646 -0.011483607 0.0511975 -0.003183572 -0.054020528 -0.054559276 0.010537136 -0.041743506 0.008027909 -0.1833065 0.031866156 0.12109263 0.058643643 0.0051157842 0.060734574 0.03585016 0.085568815 -0.057825744 0.027279567 -0.0069848434 -0.031267915 -0.021845067 0.19730099 -0.11661521 0.012686016 -0.040237684 0.034284815 0.08896451 -0.07859467 0.116886176 0.10759389 0.023329992 -0.03692215 0.16167323 -0.12834121 -0.120132014 -0.010392922 0.05307853 0.17418878 0.029831467 -0.17861754 0.10300382 -0.06059835 0.030694779
한국 0.12884974 -0.027703078 -0.2298788 -0.10546664 0.09892379 -0.058326706 -0.06743544 0.103701234 0.07386546 0.07070193 -0.021397773 -0.19315507 0.09215668 0.0731354 -0.28905886 0.057693113 0.21711046 0.26050723 -0.15475756 0.18427302 -0.034732822 0.041074485 -0.098170735 -0.11219411 -0.046072606 0.20414028 -0.07530057 -0.13950202 -0.0081862975 -0.13015224 -0.33591732 -0.029758517 0.028272431 0.015719311 0.13775386 0.035355996 0.12678511 -0.15275894 0.14174809 -0.14645925 0.13721672 -0.037135232 0.21384963 -0.07741287 -0.11534634 0.2359918 0.0727626 -0.010775161 0.06308679 0.037994236 -0.10844518 0.016154543 -0.243816 -0.038484693 0.0018552722 -0.13905929 -0.09856628 -0.03623442 0.0373808 -0.0015631289 -0.092725195 -0.101050325 -0.02736194 -0.03998494 0.015661322 -0.26895133 0.07242322 0.16415435 0.09834064 0.011855646 0.08553296 0.032096192 0.09383361 -0.08294265 0.035968672 -0.0033208225 -0.038647167 -0.05468489 0.30404565 -0.18653291 0.019960746 -0.04320027 0.06476035 0.111760415 -0.13257407 0.18655144 0.12915641 0.03863042 -0.05045655 0.2671204 -0.18676092 -0.16419633 -0.006887093 0.1050398 0.25961468 0.0038473092 -0.25172004 0.13597418 -0.089285985 0.06628598
승진 0.10631199 -0.02231089 -0.14193031 -0.08215834 0.05727876 -0.034416776 -0.024043528 0.062910594 0.027469723 0.04093541 0.007590083 -0.14407772 0.06618382 0.06262059 -0.20551062 0.025995696 0.16335675 0.17549562 -0.103265874 0.115188904 -0.002495433 0.03483622 -0.07437161 -0.085040696 -0.049588837 0.12793426 -0.071351424 -0.07044625 -0.015889287 -0.084075004 -0.22831036 -0.011991053 0.03300431 0.025670748 0.07030739 0.025382683 0.095002994 -0.112846375 0.10638683 -0.07587737 0.08800241 -0.01678273 0.1135583 -0.058510307 -0.06446444 0.16177364 0.044616308 -0.0025741009 0.05661817 0.04765073 -0.07138983 0.011509624 -0.16769932 -0.03669007 0.001309268 -0.07533243 -0.06296614 -0.011300239 0.044255912 -0.0018172691 -0.053809475 -0.05427622 0.0015079124 -0.0360952 0.008902477 -0.1855447 0.04227539 0.114281 0.054311514 0.009174098 0.05623365 0.025497422 0.081668355 -0.0505285 0.03159407 -0.0008979762 -0.026282776 -0.0234023 0.19157438 -0.12383945 0.018564658 -0.040617093 0.039294895 0.08451436 -0.07778293 0.1057743 0.10580536 0.02472121 -0.03162478 0.15640458 -0.12550701 -0.11900104 -0.0059663597 0.052318122 0.17752694 0.030912606 -0.17274338 0.092955284 -0.061084494 0.032960147
격멸 0.11075026 -0.0128292795 -0.15466224 -0.08198223 0.067931816 -0.04234567 -0.035769418 0.07056601 0.0314137 0.051354576 0.0016954092 -0.14589855 0.07130862 0.066393755 -0.21102794 0.03581023 0.16318999 0.18374456 -0.105468065 0.12554885 -0.0096716415 0.0313319 -0.071601875 -0.08584394 -0.04360692 0.13517354 -0.072506495 -0.076811895 -0.012678518 -0.083041534 -0.23939082 -0.021286272 0.033421017 0.023404306 0.08101931 0.03217313 0.09498181 -0.11219642 0.104105115 -0.0784642 0.0910676 -0.016052756 0.13080715 -0.060444757 -0.07592211 0.1603925 0.044748757 -0.0058665685 0.058771618 0.03616997 -0.0724797 0.009403799 -0.16909152 -0.0322213 -0.0008632724 -0.0785065 -0.06549769 -0.019625345 0.045838583 0.003645878 -0.052338414 -0.058341976 0.00453534 -0.0381294 0.00925175 -0.18656303 0.04138781 0.11793854 0.0679667 0.004990769 0.0623522 0.03185494 0.08199202 -0.06041598 0.035452884 -0.00550197 -0.031617843 -0.029843336 0.20173827 -0.12523575 0.019348986 -0.03946043 0.038830757 0.088614896 -0.084077165 0.118270755 0.10263032 0.027617523 -0.031148925 0.16241933 -0.13526861 -0.1291792 -0.009587741 0.06388987 0.18649042 0.029366797 -0.18450722 0.094245836 -0.060339462 0.04418407
선거 0.1315654 -0.03224232 -0.24092168 -0.11271135 0.09947638 -0.06585907 -0.064825006 0.11020896 0.08322377 0.06565612 -0.035932634 -0.18737768 0.09375903 0.06876497 -0.30314514 0.051433697 0.21434258 0.27099776 -0.15885752 0.18539324 -0.033910703 0.04389377 -0.09269554 -0.11558804 -0.055790402 0.20237148 -0.06733373 -0.14223343 -0.005782384 -0.13128915 -0.3436745 -0.028338524 0.022312028 0.024336046 0.15257259 0.04070626 0.12882826 -0.14684919 0.14400543 -0.14457828 0.14751638 -0.03145758 0.21652846 -0.073406145 -0.1254381 0.24725597 0.073340125 -0.0039897934 0.064870566 0.037467845 -0.10327905 0.015207898 -0.24139327 -0.04517329 -2.6881084e-05 -0.13516317 -0.10473191 -0.036924914 0.028081277 0.0011815741 -0.09725217 -0.10448251 -0.029527286 -0.040711645 0.01800423 -0.268623 0.074803084 0.16524434 0.103186734 0.009263764 0.081843205 0.032932255 0.10177441 -0.0848628 0.045121733 0.0032471116 -0.04121433 -0.04883331 0.30740154 -0.17739989 0.027293364 -0.036843736 0.065087214 0.10976886 -0.14187685 0.19131725 0.124584876 0.048635602 -0.05750343 0.2709351 -0.17744012 -0.15869826 -0.003446366 0.10672624 0.27284485 0.0110954605 -0.24973767 0.12692018 -0.08431709 0.071271345
종로구 0.101137176 -0.005613388 -0.16262297 -0.078580566 0.066915095 -0.043195136 -0.03608047 0.06473379 0.046837263 0.04998888 -0.0007554441 -0.1575071 0.0828203 0.06422837 -0.22040787 0.040974468 0.16640203 0.1831659 -0.10709845 0.118431054 -0.02504463 0.030771468 -0.0791704 -0.09160161 -0.04746637 0.1473118 -0.07453513 -0.08897608 -0.017348632 -0.08266568 -0.2577276 -0.024874227 0.021951444 0.027476212 0.07494376 0.01585287 0.09255357 -0.11920185 0.10727571 -0.09789947 0.10042184 -0.016057033 0.12848876 -0.053041656 -0.079852015 0.15773882 0.04943971 0.0077635786 0.06945237 0.03943685 -0.08439937 0.0004695001 -0.19729497 -0.028239757 -0.013348706 -0.10250034 -0.04436438 -0.022957986 0.032159027 -0.0048228083 -0.07501424 -0.065103084 -0.017778547 -0.036300186 -0.013160978 -0.18467274 0.051202204 0.12886757 0.07526473 0.020928644 0.04076459 0.036272585 0.08817482 -0.07009922 0.036471114 -0.004109429 -0.034614637 -0.033999186 0.21626224 -0.12379265 0.015330574 -0.024010025 0.043525483 0.08933218 -0.10679142 0.12745288 0.10214438 0.026233377 -0.029448751 0.16812655 -0.1537271 -0.13675842 -0.018425811 0.05611042 0.18055387 0.019384777 -0.17958413 0.1050547 -0.06488722 0.028800948
청사 0.10115645 -0.010144577 -0.15437067 -0.068481065 0.061436094 -0.04131413 -0.03427033 0.06245782 0.052907266 0.05714332 -0.00022965731 -0.14991292 0.08603403 0.059060622 -0.21281199 0.03909685 0.16080803 0.18180417 -0.09804699 0.11715979 -0.0163418 0.025946334 -0.0805473 -0.08836624 -0.04436887 0.13657936 -0.075844035 -0.08313489 -0.01184427 -0.07351932 -0.25886962 -0.024416326 0.019372435 0.030476347 0.071238756 0.015208866 0.08718681 -0.118016005 0.094376154 -0.08962363 0.09442131 -0.014451832 0.12299727 -0.060045987 -0.07651912 0.15448429 0.053619675 0.007132338 0.07185236 0.041053608 -0.08939853 -0.010187386 -0.193093 -0.02504369 -0.01370577 -0.10052999 -0.03279531 -0.023743097 0.030086989 -0.010313352 -0.065912046 -0.06382881 -0.009013265 -0.033842094 -0.012847255 -0.17601378 0.05098484 0.12340769 0.07859109 0.023932876 0.034644622 0.03477709 0.0818958 -0.062050387 0.03859702 -0.010695949 -0.042388823 -0.025678044 0.20243359 -0.12209375 0.018226549 -0.020978844 0.033692077 0.087272964 -0.10746571 0.13364047 0.09561227 0.020945314 -0.030679904 0.16675055 -0.14976081 -0.13498944 -0.023248024 0.05536509 0.17520958 0.015651476 -0.1703549 0.09509442 -0.060788218 0.030609628
국무 0.10038897 -0.0036878353 -0.14209329 -0.06903458 0.064228036 -0.030299075 -0.030899053 0.06398845 0.03836705 0.045802582 0.0035744347 -0.1478185 0.08778964 0.056339372 -0.19478416 0.034334317 0.15099952 0.17504682 -0.09434058 0.11170826 -0.02146719 0.021412205 -0.06884584 -0.08333382 -0.04605796 0.12955807 -0.07134171 -0.08015045 -0.012258623 -0.068409294 -0.24274841 -0.01925377 0.02699391 0.02482801 0.070526 0.018008549 0.09263717 -0.112937585 0.09274236 -0.0835871 0.08291854 -0.011292721 0.11635658 -0.050100066 -0.06818783 0.13774002 0.051806103 0.010322766 0.063385054 0.03471083 -0.08571367 -0.0023724167 -0.18037848 -0.022738637 -0.0087976605 -0.09461163 -0.039775725 -0.019607484 0.035393633 -0.008805204 -0.06614232 -0.060343966 -0.015049346 -0.032068435 -0.010835317 -0.16923662 0.04808787 0.12039388 0.07304826 0.015689185 0.039570305 0.03709059 0.077954605 -0.06450956 0.03595338 -0.011714668 -0.03834094 -0.03235306 0.19160579 -0.116656475 0.01899819 -0.012116972 0.035975423 0.08416579 -0.09685356 0.1248358 0.08779685 0.024946878 -0.022023246 0.15473613 -0.1435609 -0.1295852 -0.015763354 0.042879794 0.16667056 0.018191913 -0.16109598 0.09364152 -0.053464536 0.02646959
문재인 0.12842016 -0.025327832 -0.21223046 -0.10149337 0.08302856 -0.059598338 -0.062117923 0.09533656 0.06403372 0.06434516 -0.019445347 -0.18034035 0.09640307 0.06962903 -0.26995918 0.055300765 0.20487091 0.2334222 -0.13691711 0.17846605 -0.031840775 0.043536622 -0.09182756 -0.10481929 -0.052050263 0.18478552 -0.071479656 -0.11821979 -0.01083086 -0.10959735 -0.31881943 -0.035103142 0.031623427 0.016723145 0.12629454 0.035228048 0.12518406 -0.147282 0.14466645 -0.13111392 0.11639351 -0.028751755 0.19605266 -0.0660165 -0.10674126 0.2135377 0.06799917 -0.008407626 0.07317384 0.041671854 -0.098672435 0.01963904 -0.22466984 -0.037705902 -0.0051064417 -0.12522443 -0.082555056 -0.029184455 0.038999997 -0.0048781787 -0.08707031 -0.09308268 -0.011471431 -0.033165723 0.01252954 -0.25542927 0.067694366 0.14685483 0.10082271 0.011621638 0.07760093 0.037726834 0.09405486 -0.08513229 0.038535576 -0.0052088737 -0.038286243 -0.04490792 0.27277756 -0.17326804 0.017204149 -0.035605382 0.061654948 0.10833806 -0.12397747 0.16298324 0.12584199 0.041487314 -0.04761426 0.24359116 -0.17615591 -0.15310664 -0.01436221 0.090532385 0.24573188 0.01452956 -0.23640388 0.12847614 -0.078149535 0.06543926
청와대 0.14595182 -0.02860506 -0.24977098 -0.10421882 0.108936116 -0.05972905 -0.06341153 0.11596451 0.08260098 0.08254639 -0.018491138 -0.20361193 0.10025811 0.09289151 -0.2995012 0.05693097 0.22997732 0.2655504 -0.16140409 0.19400436 -0.037615884 0.035712592 -0.10335975 -0.1182438 -0.046960164 0.20419925 -0.0792797 -0.13290665 -0.002598355 -0.13075487 -0.3580627 -0.037338052 0.022409452 0.024563577 0.14844356 0.039738573 0.14188898 -0.15844485 0.1476046 -0.14843728 0.13696577 -0.0385978 0.21491748 -0.08592198 -0.12162548 0.24952702 0.07265832 -0.01051938 0.07543764 0.050771706 -0.11832735 0.014965296 -0.24794184 -0.031477652 -0.0056506307 -0.14147972 -0.09927369 -0.040102154 0.04945705 0.008935779 -0.107714914 -0.112604044 -0.01785883 -0.0403629 1.7227683e-05 -0.28724292 0.06749689 0.16039498 0.10519132 0.027335543 0.078826584 0.03416717 0.111277394 -0.09433284 0.040696103 -0.0051055374 -0.04587333 -0.04935133 0.32143566 -0.20008549 0.013399763 -0.04103546 0.06651015 0.12139705 -0.13802858 0.19621024 0.14734627 0.04335571 -0.059412595 0.27075216 -0.20330398 -0.17816962 -0.009624442 0.10362551 0.27674565 0.0020358483 -0.26811826 0.14307556 -0.09361933 0.067991674
정미 0.12720965 -0.0152123915 -0.22104523 -0.096489474 0.0951019 -0.059565265 -0.057444237 0.105135106 0.07743558 0.07509542 -0.02473662 -0.19051908 0.086098716 0.07741737 -0.27928254 0.054973394 0.20739132 0.23796883 -0.15217276 0.18039843 -0.032331675 0.03603782 -0.09344487 -0.11407101 -0.048113473 0.18824194 -0.07156804 -0.12926519 -0.01415608 -0.12266224 -0.32206947 -0.027990494 0.02773731 0.018210918 0.135685 0.033242285 0.12307454 -0.13898084 0.14217468 -0.14591528 0.13181412 -0.027264303 0.20851387 -0.073509775 -0.11304943 0.23067333 0.06321635 -0.0035888483 0.061215073 0.041585386 -0.10939209 0.016337838 -0.22787274 -0.027991286 -0.0022645965 -0.12527528 -0.09103837 -0.02840688 0.032011803 -0.004934396 -0.09262517 -0.10326396 -0.020485751 -0.034670047 0.004272258 -0.25338492 0.06386361 0.15398999 0.1092405 0.018179882 0.07328051 0.034559805 0.09472982 -0.08648603 0.034402557 -0.0099839065 -0.045320716 -0.047375996 0.27990615 -0.18047048 0.020834578 -0.028138382 0.067542665 0.11279756 -0.13057467 0.1782425 0.13183112 0.026380055 -0.057528496 0.24965122 -0.1851913 -0.15655877 -0.014987235 0.09443266 0.25150138 0.00042332849 -0.24877776 0.12729722 -0.07924184 0.07067983
사드 0.13198271 -0.0152933905 -0.22350812 -0.09912828 0.093917325 -0.05444527 -0.061896957 0.10638755 0.07860055 0.06873763 -0.028447468 -0.19429906 0.09430351 0.07807138 -0.2794304 0.059054136 0.21394385 0.2482921 -0.14717768 0.18416291 -0.029513342 0.037882097 -0.09637702 -0.11436999 -0.04451342 0.18722478 -0.07890731 -0.12857741 -0.011696818 -0.12326544 -0.33020705 -0.032600842 0.026218638 0.02191067 0.14158668 0.03704515 0.12783659 -0.14304204 0.143978 -0.14393136 0.12883519 -0.03687595 0.20391612 -0.06771681 -0.116499305 0.22657302 0.070312716 -0.0038491387 0.06721453 0.046847288 -0.109041356 0.017273787 -0.23311612 -0.032993797 -0.0013104865 -0.13289188 -0.08795399 -0.03267403 0.03646234 -0.0014957371 -0.08894796 -0.106552534 -0.027479714 -0.040906034 0.00014428786 -0.26525047 0.06744647 0.1542501 0.10740212 0.020520931 0.07965286 0.030769283 0.09267339 -0.0901429 0.04022723 -0.0029173961 -0.04140249 -0.04821853 0.28682882 -0.17489636 0.019994656 -0.035126522 0.06433313 0.11525605 -0.13017154 0.17991807 0.13288282 0.036829058 -0.05143997 0.24956559 -0.18087709 -0.1619991 -0.008554241 0.096051656 0.25181076 0.009391757 -0.25201467 0.13137884 -0.08380378 0.06800529
국민 0.13230848 -0.0178105 -0.22693874 -0.10067974 0.08834907 -0.05981472 -0.06559752 0.10652231 0.07268201 0.06736894 -0.024645077 -0.18379013 0.09353184 0.074920826 -0.27385896 0.05151546 0.20384331 0.25453728 -0.15031804 0.18048573 -0.03861055 0.035750184 -0.09093265 -0.10812874 -0.049696878 0.19551595 -0.07503396 -0.12947203 -0.004404032 -0.11995387 -0.3364816 -0.029905671 0.026358558 0.015220669 0.13593265 0.028616589 0.12407434 -0.14933917 0.13994092 -0.13898134 0.12600878 -0.02767183 0.21049248 -0.07469383 -0.110160634 0.22894113 0.065852106 -0.0030127729 0.07156191 0.038530346 -0.10864245 0.015566383 -0.2411022 -0.035209674 -0.009155904 -0.13221917 -0.0896734 -0.0345324 0.029392684 -0.0048470753 -0.09194889 -0.101939954 -0.019699091 -0.032875367 0.006886952 -0.26472574 0.072010756 0.15397857 0.0974443 0.019942382 0.078246295 0.040428463 0.09056657 -0.088236935 0.03954812 -0.00999296 -0.04956552 -0.051544204 0.28619432 -0.1798101 0.025734106 -0.035061613 0.061584823 0.107062526 -0.1335054 0.18400532 0.13309954 0.035380114 -0.055215117 0.25443262 -0.17944239 -0.16360937 -0.01608105 0.0898143 0.25292465 0.0055813817 -0.24243633 0.12559476 -0.07956876 0.06373187
연합뉴스 0.13193771 -0.024004694 -0.23007917 -0.10671447 0.09473945 -0.05601137 -0.06524582 0.11261195 0.0756381 0.075083464 -0.023557609 -0.19227123 0.09728001 0.07234053 -0.2888812 0.050463863 0.21457018 0.25700733 -0.1483297 0.18571526 -0.035062715 0.039949734 -0.089817554 -0.11031491 -0.05306781 0.1990114 -0.07202445 -0.13327932 -0.0019015867 -0.12222983 -0.33531064 -0.039315023 0.022523642 0.01715225 0.13271298 0.029765714 0.13528267 -0.14653373 0.14156154 -0.14258581 0.13147734 -0.03457462 0.20919354 -0.08004712 -0.117374234 0.23683925 0.070171684 -0.009475243 0.06289955 0.038850233 -0.10494853 0.012903084 -0.233457 -0.028274523 1.21912235e-05 -0.13018149 -0.10180553 -0.035949204 0.03160734 -0.006205014 -0.09798685 -0.102405295 -0.020581098 -0.03438522 0.0044991304 -0.26961902 0.06396268 0.16353278 0.10044455 0.01404384 0.08280756 0.030338762 0.10589153 -0.08956212 0.034001112 -0.011274131 -0.047215298 -0.05327128 0.2984402 -0.18231496 0.014708624 -0.04188974 0.06836797 0.10861981 -0.13302742 0.1842142 0.13008131 0.03292368 -0.050437015 0.26222867 -0.18752822 -0.16970006 -0.012716399 0.09936754 0.2621092 0.0072554294 -0.24948724 0.13024579 -0.08329296 0.07510407
박근혜 0.13655624 -0.020759514 -0.22796968 -0.100412 0.09787052 -0.054038867 -0.057536796 0.107912354 0.07692282 0.06516396 -0.021521814 -0.18620123 0.09955245 0.076183565 -0.27562723 0.05443275 0.20444871 0.24032202 -0.1493353 0.18305491 -0.028352711 0.02966318 -0.09386115 -0.106778026 -0.051460885 0.1929426 -0.06546989 -0.12511066 -0.0024879128 -0.122910336 -0.3326113 -0.032194868 0.018212896 0.015750809 0.1387016 0.03153595 0.12806413 -0.14663643 0.13531438 -0.14391226 0.1267047 -0.0382809 0.20746098 -0.0715889 -0.11714568 0.22241332 0.07371015 -0.008115066 0.06762445 0.047902405 -0.103127986 0.021026803 -0.23151469 -0.026201423 -0.00016612619 -0.12907599 -0.09194833 -0.043337844 0.03655117 -0.0014497624 -0.09013965 -0.10238834 -0.02435647 -0.03585697 0.0016394864 -0.26511046 0.06799667 0.15131885 0.10538073 0.02731215 0.075046904 0.025030341 0.106368974 -0.083193 0.03563737 -0.0046677473 -0.04198821 -0.043420803 0.2964717 -0.17561284 0.018528014 -0.03588834 0.061252844 0.10992475 -0.13156377 0.18144825 0.12707913 0.033974934 -0.05785915 0.2509828 -0.18923482 -0.16599564 -0.0064886003 0.097456194 0.24924105 0.010697277 -0.24639405 0.12435422 -0.07691387 0.07005947
내곡동 0.13557163 -0.021469261 -0.23441152 -0.10375399 0.1052582 -0.050397806 -0.060701333 0.10802606 0.08077073 0.07059405 -0.02852952 -0.18245009 0.10237224 0.07101708 -0.27465683 0.050564107 0.20479013 0.24297513 -0.14792466 0.1898693 -0.03448856 0.03675684 -0.09181123 -0.11275485 -0.043971263 0.18749969 -0.06839546 -0.12974338 0.002560541 -0.113433294 -0.33869886 -0.02899444 0.019591713 0.023291228 0.13224652 0.041269623 0.12246242 -0.15523441 0.12875372 -0.14093322 0.12974767 -0.03683091 0.1965299 -0.07801193 -0.11930268 0.22476535 0.07211433 0.00027170122 0.061298754 0.05258296 -0.11430858 0.018633047 -0.22756313 -0.022766547 0.002382674 -0.13156842 -0.088834584 -0.040938362 0.036658306 0.010662013 -0.101619355 -0.10985319 -0.021181257 -0.045367416 -0.006692696 -0.26932362 0.058901086 0.15590762 0.10543146 0.02847045 0.07959165 0.02201736 0.112962164 -0.085349016 0.029917916 0.0005976557 -0.036709823 -0.041928805 0.3017199 -0.186624 0.011365813 -0.029982436 0.06066263 0.11466959 -0.13467392 0.18040988 0.12526156 0.03902062 -0.057525765 0.25248206 -0.17849222 -0.16832982 -0.005488717 0.09411952 0.24714065 0.003612431 -0.24607643 0.12718311 -0.08629182 0.0729982
참석 0.11326926 -0.017380562 -0.15741669 -0.082623765 0.059629753 -0.04290938 -0.0333185 0.063020445 0.03446997 0.053653587 -0.0017757303 -0.15103912 0.07977306 0.07014131 -0.21747506 0.037886012 0.16123891 0.1858316 -0.11169426 0.12246916 -0.015322231 0.038540125 -0.07014452 -0.08468839 -0.03835203 0.13308443 -0.07322906 -0.08561484 -0.008564752 -0.08509156 -0.24366423 -0.02420229 0.032397933 0.018164534 0.07823092 0.02611914 0.091126785 -0.11436489 0.11109264 -0.081986845 0.09427295 -0.015822709 0.13301723 -0.061567333 -0.07373603 0.1639952 0.05086812 -0.008027899 0.062411986 0.041377187 -0.08221475 0.012383815 -0.17706516 -0.025224017 0.0015097284 -0.07850134 -0.06375446 -0.013059297 0.04464488 0.0016215618 -0.054842096 -0.06446736 0.005634179 -0.038916387 0.006266314 -0.19082396 0.044584874 0.12127256 0.06608766 0.012647444 0.05979225 0.03385447 0.083019294 -0.056981657 0.027891053 -0.002855756 -0.034837067 -0.029451318 0.20049727 -0.12724972 0.015102357 -0.036228698 0.038237102 0.090947054 -0.09007084 0.12793277 0.10463402 0.022985086 -0.031442728 0.1709791 -0.1309485 -0.12732987 -0.008266687 0.058145344 0.18129313 0.026363011 -0.18411641 0.1029813 -0.058752302 0.04422778
지역 0.13557716 -0.01908214 -0.23879507 -0.108048424 0.101755045 -0.065946564 -0.061550777 0.11262731 0.07506606 0.06797064 -0.03187874 -0.19674924 0.0976957 0.07582877 -0.29680008 0.05792741 0.21745582 0.26351264 -0.15959688 0.1953633 -0.032254487 0.040377732 -0.096289046 -0.11525179 -0.051324237 0.20655093 -0.07965211 -0.14175889 -0.004049838 -0.12604165 -0.34719458 -0.030019704 0.026048185 0.018936407 0.1428219 0.038778022 0.13564922 -0.15549971 0.14726475 -0.14743263 0.14424175 -0.037599303 0.22433005 -0.072414115 -0.117520735 0.24135412 0.067567885 -0.002714242 0.06872829 0.04235542 -0.108400114 0.014836905 -0.2412109 -0.039183944 -0.0052286214 -0.13171342 -0.10020039 -0.028918805 0.04159138 0.0029158725 -0.095870525 -0.108603135 -0.021894442 -0.03384446 0.007539765 -0.2753706 0.07297391 0.16554493 0.10692436 0.011655945 0.08341684 0.031925 0.10404659 -0.087085865 0.044139896 -0.009600083 -0.042068627 -0.054324508 0.30516046 -0.1866299 0.022021744 -0.04164835 0.07028576 0.11746474 -0.14126305 0.19261377 0.13436757 0.04129028 -0.057381283 0.26775858 -0.18624972 -0.16402707 -0.011347734 0.09988653 0.26884514 0.0082982015 -0.25753647 0.142225 -0.08885652 0.07721625
매입 0.13680166 -0.023987383 -0.22418645 -0.105634324 0.09336707 -0.05421979 -0.06538659 0.1142916 0.07231249 0.06909959 -0.026422558 -0.18435784 0.09784502 0.07495786 -0.26873472 0.05145924 0.20488337 0.2436975 -0.1492221 0.18957582 -0.035821076 0.029705105 -0.08960544 -0.11295793 -0.041944936 0.18987088 -0.0640724 -0.12649156 0.005274746 -0.12170528 -0.33044997 -0.028929237 0.018657636 0.01751196 0.13359517 0.03395657 0.12391658 -0.14953436 0.12657405 -0.14362358 0.128987 -0.04431994 0.19735754 -0.08234159 -0.12519294 0.22756797 0.06517854 -0.0062982594 0.06399722 0.04362913 -0.10974458 0.01851017 -0.22313812 -0.025158416 0.0016613366 -0.13023117 -0.08995169 -0.042807054 0.042698115 0.008845072 -0.09979385 -0.09912291 -0.023089865 -0.041045155 -0.0082023395 -0.26885438 0.057641637 0.14858516 0.09575096 0.027538858 0.07357735 0.02378836 0.111244984 -0.08056082 0.038457826 0.00010328394 -0.031442054 -0.045708805 0.2994452 -0.18221761 0.013388439 -0.0267347 0.055642374 0.11540429 -0.13627255 0.17685659 0.12528957 0.04051805 -0.061614886 0.24775536 -0.17689082 -0.16858982 0.00030891373 0.09036041 0.23903722 0.004220632 -0.24699336 0.13130012 -0.08002082 0.07636659
민주당 0.12857902 -0.023850428 -0.20001626 -0.101228856 0.08686312 -0.049548615 -0.050273694 0.08975763 0.057011906 0.0696789 -0.009677533 -0.17646223 0.09373441 0.06833319 -0.2609462 0.05300748 0.20343567 0.2376784 -0.13136743 0.1660254 -0.020668643 0.04491095 -0.09148639 -0.102827504 -0.05371766 0.17345464 -0.075350754 -0.110077575 -0.006187973 -0.11555556 -0.30949533 -0.024921108 0.02774133 0.02694028 0.122874364 0.028207488 0.11767267 -0.1393768 0.1339711 -0.11858223 0.12298782 -0.030115245 0.183488 -0.06576133 -0.10423788 0.20685586 0.062020555 -0.0028204625 0.06454231 0.04293052 -0.09714264 0.018941466 -0.22614598 -0.028788054 0.0011565384 -0.11074558 -0.08672678 -0.031799544 0.03965625 -0.0022365116 -0.08362819 -0.0888985 -0.0102002965 -0.035142634 0.013071781 -0.24699268 0.06621021 0.15281522 0.09520668 0.018183812 0.0705326 0.03122135 0.089987986 -0.07882149 0.038022738 -0.0039658896 -0.03585391 -0.038074236 0.26841593 -0.17219275 0.014491932 -0.044827014 0.055175763 0.10255312 -0.116956204 0.15887386 0.12806852 0.041195616 -0.042691294 0.2342442 -0.16823226 -0.15279092 -0.0116375685 0.0919681 0.2421763 0.019663524 -0.2285821 0.11721804 -0.072473615 0.054822754
변호사 0.13441624 -0.02673097 -0.25073007 -0.114366926 0.10187008 -0.06053348 -0.06268596 0.10746048 0.07882196 0.068596765 -0.019682711 -0.20939638 0.09698859 0.079129025 -0.2977246 0.055654537 0.2307655 0.27100918 -0.16017842 0.19947395 -0.029015077 0.039383437 -0.09945714 -0.12226716 -0.053468976 0.21345624 -0.079380006 -0.13683239 -0.009433894 -0.12757064 -0.36286405 -0.040315002 0.024153948 0.026043782 0.15155798 0.03642633 0.1457366 -0.16829342 0.16281849 -0.15697676 0.15287465 -0.034377772 0.22913921 -0.07686054 -0.12767974 0.25400758 0.071071334 -0.0015770404 0.08314515 0.04416061 -0.10911336 0.020207213 -0.25909063 -0.030551903 -0.0043903864 -0.14321521 -0.10165686 -0.03729384 0.045447778 -0.0072700665 -0.104038365 -0.111232735 -0.028415356 -0.040462144 0.013435437 -0.28625733 0.06291038 0.17422383 0.11905312 0.015802765 0.079615004 0.029313413 0.115081236 -0.08751846 0.034865666 -0.010269021 -0.04714823 -0.0585929 0.31649455 -0.18850379 0.019699445 -0.036334496 0.06717712 0.12877391 -0.14648438 0.19731796 0.14235921 0.03541412 -0.06254376 0.27446797 -0.20074315 -0.17792508 -0.011660652 0.100008 0.27718383 0.008627624 -0.27335224 0.1388218 -0.08244305 0.07614002
영향 0.13339482 -0.024811855 -0.2238264 -0.09479114 0.10171851 -0.054998126 -0.061510134 0.10400209 0.07446759 0.076518826 -0.024811996 -0.18811847 0.08751538 0.07863123 -0.2779706 0.060274 0.20569608 0.24458249 -0.15200341 0.17675963 -0.036020853 0.03334264 -0.087818295 -0.115432255 -0.043307893 0.19239335 -0.07215693 -0.13201548 -0.009154562 -0.113985196 -0.33043024 -0.032704905 0.020928046 0.015894871 0.14125772 0.03096512 0.13173439 -0.14681877 0.14472564 -0.14525254 0.1336328 -0.02813884 0.2022299 -0.065355 -0.11551287 0.23559175 0.06771006 0.0015988245 0.071682125 0.036503635 -0.110839225 0.009619215 -0.22889191 -0.027129296 -0.0014555258 -0.122703165 -0.085900754 -0.034446944 0.041595783 0.005343534 -0.09059584 -0.10542921 -0.023477824 -0.034865744 -0.005509905 -0.26237833 0.067011185 0.15419918 0.09945628 0.012690884 0.07877877 0.034953617 0.09844139 -0.08386224 0.038663752 -0.0033506355 -0.046334185 -0.05317818 0.2916435 -0.17336391 0.012734431 -0.025654191 0.0659486 0.10413731 -0.126624 0.17701899 0.1337401 0.024092976 -0.053688776 0.25156826 -0.18157789 -0.15508302 -0.014271245 0.08683734 0.2516557 0.0048568915 -0.24749656 0.12453298 -0.08280491 0.070675716
최신 0.13263753 -0.02901003 -0.22425002 -0.10416908 0.097010046 -0.053886823 -0.062309444 0.10514893 0.07483632 0.06140386 -0.021775942 -0.17761162 0.092169195 0.071723245 -0.27529535 0.054892287 0.20862149 0.24834171 -0.14539665 0.1772126 -0.034780476 0.03661642 -0.08525879 -0.10986502 -0.048064273 0.1841931 -0.06429208 -0.12797914 0.00010043797 -0.119697824 -0.33026448 -0.03768167 0.013936382 0.010059799 0.1275872 0.030993348 0.12094053 -0.14953312 0.14283796 -0.13924634 0.13019672 -0.030729068 0.20024648 -0.070876524 -0.10796018 0.21565245 0.06563335 -0.0063334927 0.058817144 0.045633778 -0.10820027 0.0073187775 -0.22872029 -0.0301093 -0.0026862063 -0.13277932 -0.088683225 -0.034538724 0.03594992 0.0015965542 -0.09745121 -0.09587563 -0.014444165 -0.034859736 0.0033469205 -0.26463503 0.07073299 0.15440838 0.10022805 0.026487496 0.07560275 0.027901353 0.09640493 -0.08329213 0.04170417 -0.004490675 -0.042961247 -0.043986853 0.2848554 -0.18049231 0.013922797 -0.038713638 0.060644858 0.10261492 -0.12239348 0.18096633 0.12129146 0.0312726 -0.051202595 0.23647106 -0.17142473 -0.15277989 -0.011846519 0.093825385 0.24954179 0.0055634524 -0.24352086 0.1262503 -0.0842694 0.07243751
트렌드 0.12721606 -0.022568554 -0.22601375 -0.10173682 0.09530743 -0.05438606 -0.06552268 0.101832256 0.07729099 0.06496891 -0.02444675 -0.17918059 0.08998713 0.07500382 -0.27769905 0.052329935 0.21097463 0.2526365 -0.15146212 0.17510897 -0.037072536 0.0336065 -0.09015422 -0.10869197 -0.051296398 0.1841418 -0.0673662 -0.1268973 -0.0025204916 -0.12478021 -0.32581034 -0.03637383 0.019018576 0.009964402 0.12994806 0.04150996 0.124033675 -0.14420734 0.1374438 -0.13962072 0.13246639 -0.026061593 0.20191345 -0.07078698 -0.11276115 0.21673317 0.067161426 -0.010838003 0.06976294 0.04143897 -0.10980472 0.009052017 -0.23264983 -0.032719724 0.0034528852 -0.13151237 -0.095013596 -0.0323509 0.039265897 0.0005314754 -0.099187955 -0.09940339 -0.015334393 -0.034729637 0.011256086 -0.27081627 0.07134606 0.15174092 0.10322646 0.026792435 0.080614 0.024844246 0.09982349 -0.0912982 0.04260391 -0.009473235 -0.046868958 -0.044974115 0.28873542 -0.17350537 0.010038 -0.034519453 0.06023415 0.10322611 -0.12166137 0.1761596 0.12996668 0.036014084 -0.06002479 0.24118389 -0.18116343 -0.15552984 -0.009290185 0.098882236 0.24781354 0.01377799 -0.24165764 0.12753704 -0.084089525 0.06604704
진행 0.13465117 -0.020505771 -0.23114173 -0.108231105 0.0930407 -0.06152796 -0.056810535 0.10793167 0.06949893 0.072731525 -0.023369873 -0.19512948 0.091720946 0.081133485 -0.2836682 0.057366088 0.2129651 0.2531536 -0.15194818 0.18677758 -0.03145412 0.032892935 -0.09822751 -0.11721524 -0.050607324 0.2001592 -0.07280315 -0.12803973 -0.0090116095 -0.123519115 -0.33596098 -0.030218065 0.017767707 0.02024822 0.13546504 0.040530767 0.1261393 -0.15348098 0.14531155 -0.13890919 0.13257654 -0.035897583 0.2078443 -0.07813154 -0.118442476 0.23641855 0.07441203 -0.008885274 0.066273145 0.045829993 -0.10455998 0.015564407 -0.23879312 -0.026612023 -0.0019884908 -0.13646284 -0.10097856 -0.032237332 0.03800469 -0.0006734691 -0.09895448 -0.10754525 -0.017781684 -0.039356086 0.0050631496 -0.2740241 0.07139515 0.15162712 0.106157236 0.015740296 0.08460957 0.037316773 0.10081015 -0.08675914 0.04326271 -0.0025060654 -0.045148674 -0.05601574 0.29481715 -0.18451098 0.013338366 -0.030953465 0.059392467 0.1163553 -0.12462047 0.18508874 0.13905726 0.03526959 -0.05320726 0.2557663 -0.18876395 -0.16503675 -0.0137032615 0.09676033 0.25678733 0.0050802925 -0.25213388 0.13668364 -0.08906228 0.07388321
경호실 0.1352806 -0.025437644 -0.22417997 -0.10376741 0.09691025 -0.047595512 -0.062252853 0.11445481 0.077635765 0.06538681 -0.022430645 -0.18044184 0.101240866 0.068644986 -0.26912278 0.046898574 0.20380951 0.24217403 -0.14279294 0.18719894 -0.028604168 0.03403401 -0.092316195 -0.110516116 -0.04341689 0.1843776 -0.061709896 -0.11762878 0.008030813 -0.11876519 -0.3198296 -0.024362316 0.02218166 0.018246498 0.13377826 0.03775083 0.12569468 -0.14698654 0.1335064 -0.13967149 0.12554136 -0.04514033 0.19131027 -0.079580426 -0.12030725 0.21821144 0.06827239 -0.002174867 0.06072962 0.04333729 -0.10383923 0.024698468 -0.22777618 -0.028177118 -0.0027527243 -0.13383986 -0.095552064 -0.043895666 0.039084345 0.0021193684 -0.091547504 -0.1065403 -0.019046417 -0.039498832 -0.00046514222 -0.2677679 0.06446066 0.14333989 0.09927466 0.031069739 0.08046306 0.021038055 0.10908806 -0.08396257 0.027392695 0.0007353004 -0.038013406 -0.04137814 0.2952484 -0.18056065 0.010122858 -0.031229375 0.054087617 0.11494991 -0.13616934 0.17274581 0.12020442 0.037275612 -0.060503017 0.23625582 -0.17724173 -0.16576794 0.00329424 0.08835133 0.23780636 -0.00015904175 -0.23730287 0.12718672 -0.08002399 0.070460804
주택 0.13485667 -0.026058009 -0.22585964 -0.10298215 0.09471418 -0.05536434 -0.06028589 0.11682945 0.07054872 0.06985319 -0.029217092 -0.18864986 0.10306983 0.0642153 -0.2727067 0.046477474 0.20067933 0.24159302 -0.14445367 0.19086668 -0.033445925 0.029349191 -0.09626069 -0.10796814 -0.04873784 0.18461144 -0.063802294 -0.11969486 0.0031465879 -0.12286373 -0.33037263 -0.029587645 0.020327576 0.026394295 0.13662145 0.039838158 0.12454723 -0.14781304 0.12728404 -0.13618879 0.13357551 -0.045237172 0.19851585 -0.07935879 -0.12557021 0.22712004 0.072405934 -0.0030620785 0.059574135 0.04940419 -0.10518811 0.025942044 -0.22921012 -0.023120753 0.0011222895 -0.13771713 -0.087780334 -0.03934771 0.046828587 0.0021273312 -0.097519495 -0.109919064 -0.027881896 -0.03466338 -0.010203017 -0.274492 0.059590645 0.15163104 0.098241255 0.02954691 0.07751812 0.023948485 0.11226364 -0.089502335 0.028847259 -0.006145356 -0.031552467 -0.04666807 0.29956856 -0.18441056 0.017547147 -0.020771002 0.054075636 0.119153544 -0.1370213 0.17605652 0.12897615 0.041866265 -0.0614122 0.25122628 -0.1874399 -0.17208691 -0.00038056247 0.08746868 0.24144801 0.0005580493 -0.24614313 0.12480427 -0.07875413 0.072392754
기술 0.1172858 -0.014673297 -0.20303456 -0.084516056 0.084661864 -0.050947912 -0.052586615 0.09703744 0.056872327 0.06484139 -0.021693707 -0.17086972 0.09066085 0.06536866 -0.2536426 0.04457344 0.19847251 0.22454174 -0.12943572 0.15566665 -0.024295112 0.023951527 -0.08023982 -0.11010567 -0.041232444 0.1794109 -0.07048932 -0.11098413 -0.010473157 -0.11351949 -0.30244803 -0.029979777 0.015156392 0.017341226 0.111862086 0.02844167 0.11767742 -0.13939206 0.13347533 -0.12508325 0.109676085 -0.02772686 0.18130484 -0.059250873 -0.09616276 0.20048018 0.054623928 -0.006702381 0.0646399 0.048525095 -0.09124892 0.011966795 -0.21051565 -0.02269487 0.005088578 -0.11035855 -0.08947769 -0.027467571 0.033935007 0.0006493866 -0.08479764 -0.07845485 -0.008072755 -0.032331314 0.017401543 -0.24121845 0.06221961 0.13912746 0.08624541 0.019842401 0.079426706 0.03739883 0.08509719 -0.07466464 0.034853704 0.0024158645 -0.029585555 -0.043085016 0.25669533 -0.15853964 0.020633584 -0.034838844 0.051264726 0.09765237 -0.11721603 0.15815187 0.122373715 0.03511626 -0.043556087 0.21630266 -0.1581323 -0.14303714 -0.017574226 0.08264063 0.23286979 0.0106641855 -0.21943471 0.12124294 -0.067212895 0.044602647
평가 0.1307422 -0.016607095 -0.21904741 -0.10143765 0.099085696 -0.056353036 -0.061748996 0.098931834 0.07398743 0.07201804 -0.021805612 -0.19459456 0.08630323 0.08286504 -0.28428805 0.05729476 0.21059188 0.24643347 -0.14503169 0.18181606 -0.039375473 0.030038266 -0.09474407 -0.11187509 -0.040555026 0.19317363 -0.072896935 -0.13435492 -0.014854904 -0.116916515 -0.32772228 -0.029958531 0.026155053 0.018191433 0.13784137 0.03676347 0.12877607 -0.144905 0.1496345 -0.14841355 0.12902106 -0.027881945 0.21193455 -0.06421939 -0.109270886 0.23601064 0.07301333 -0.0008321336 0.06471411 0.042452298 -0.10296325 0.008432314 -0.23083492 -0.021682695 -0.0047091995 -0.12622839 -0.09563218 -0.028904945 0.03930467 0.0026718364 -0.09116767 -0.09869135 -0.023117876 -0.03299016 0.00089802867 -0.26291773 0.06817988 0.15643188 0.10402598 0.009663532 0.08066397 0.03427844 0.09348233 -0.0878371 0.039073553 -0.013013449 -0.04023153 -0.04971895 0.29521218 -0.183755 0.023272336 -0.029278167 0.06460101 0.1104349 -0.12340176 0.18032426 0.13903922 0.030239768 -0.06032212 0.2522809 -0.18788992 -0.15693831 -0.016236708 0.09479227 0.25816154 0.0044778995 -0.2537125 0.13547184 -0.08468675 0.073071115
배치 0.12559459 -0.024939703 -0.2162506 -0.10327502 0.089719884 -0.06172322 -0.059852082 0.10329884 0.07123138 0.07126561 -0.025175506 -0.19539982 0.08657043 0.07279271 -0.27287838 0.05812835 0.2068178 0.24365494 -0.14411883 0.17645562 -0.037223876 0.040958077 -0.09941872 -0.108821236 -0.051786706 0.19344738 -0.07667683 -0.12818266 -0.009903432 -0.12255463 -0.32982174 -0.027908163 0.019265417 0.016960248 0.14190575 0.039682314 0.1296871 -0.1468752 0.14009619 -0.14063108 0.12757468 -0.029743955 0.20879433 -0.06900289 -0.11478277 0.23192592 0.065068565 -0.007699972 0.06247075 0.048910394 -0.11150986 0.019089827 -0.2309286 -0.025263904 -0.0050856746 -0.1339085 -0.09347697 -0.034223475 0.039637323 -0.0012485977 -0.09656655 -0.10495492 -0.02559038 -0.035687327 -0.0016117498 -0.26215193 0.068788886 0.14948592 0.10121034 0.023697121 0.076538496 0.035888046 0.09481878 -0.0891507 0.032747846 -0.00392699 -0.04444581 -0.052878015 0.2856369 -0.1830032 0.013748317 -0.03247442 0.061500747 0.115575984 -0.12575997 0.17777018 0.13395154 0.031452 -0.05203812 0.24899647 -0.17785122 -0.15357788 -0.008145275 0.093508504 0.252723 0.0099198 -0.24786255 0.13219754 -0.08638287 0.06749767
집결 0.124772556 -0.026170347 -0.2087328 -0.102803 0.09307927 -0.047787745 -0.054035064 0.095967285 0.07440941 0.06191903 -0.025982538 -0.17733054 0.08501493 0.073797196 -0.2680656 0.05026351 0.20178936 0.23904954 -0.13486335 0.17099243 -0.031776275 0.032885622 -0.08675747 -0.10651737 -0.045389988 0.17890033 -0.0742815 -0.11932631 -0.00023920783 -0.11734629 -0.31608367 -0.029939635 0.015455952 0.014773645 0.12989023 0.04066714 0.116485 -0.14196388 0.13430339 -0.12842284 0.12313157 -0.029259851 0.1934637 -0.07371862 -0.10251408 0.21362485 0.071140125 -0.004908443 0.061462335 0.04788571 -0.104507886 0.008413175 -0.22110228 -0.023766208 -0.001212586 -0.12546596 -0.0922113 -0.035688996 0.031916227 -0.0034604673 -0.09609548 -0.09902351 -0.021744896 -0.03663271 0.007981673 -0.25643235 0.06585148 0.1405185 0.10191455 0.02258489 0.070584506 0.024227826 0.09668594 -0.08446301 0.039070275 -0.002405657 -0.039044954 -0.049402297 0.27781826 -0.16993164 0.017561058 -0.040124044 0.06005677 0.108934455 -0.114228934 0.17344204 0.12947606 0.03687025 -0.05699065 0.22906953 -0.16865174 -0.1517948 -0.008048724 0.09490969 0.23581588 0.010997874 -0.23269345 0.11966616 -0.07635904 0.06326115
참관 0.1061376 -0.010493645 -0.15703587 -0.07292345 0.060067415 -0.0331658 -0.035297744 0.065995455 0.042472396 0.060031492 -0.0046169995 -0.14862688 0.078676574 0.065312445 -0.20821011 0.034799904 0.15221639 0.17520718 -0.11058433 0.12531301 -0.01498197 0.03909711 -0.07489108 -0.07825209 -0.03950972 0.13576503 -0.07413613 -0.08102386 -0.018607756 -0.083297715 -0.23782076 -0.016397811 0.021136375 0.025685579 0.0807196 0.020994622 0.0900198 -0.117656164 0.10798948 -0.080281876 0.08785302 -0.019299831 0.12606783 -0.05996435 -0.0742926 0.15539163 0.046974238 -0.002776844 0.057374243 0.040843826 -0.08189931 0.008499137 -0.16747682 -0.023215251 -0.008694006 -0.08494884 -0.049558137 -0.016974237 0.03443435 -0.0056842626 -0.055224724 -0.06948173 0.004152418 -0.034055628 0.0023983184 -0.18170436 0.03887816 0.11435944 0.06800728 0.011397641 0.055731192 0.02966974 0.07831361 -0.05744662 0.037893344 -0.012307272 -0.034685157 -0.027586794 0.19806543 -0.12476644 0.009181591 -0.029237285 0.03400967 0.08032778 -0.09357294 0.12426345 0.10293513 0.025335982 -0.028807793 0.16802682 -0.13940309 -0.12815487 -0.004082991 0.063727945 0.17574498 0.016556622 -0.17394765 0.09589868 -0.056781214 0.039716195
주민 0.13651206 -0.023242088 -0.23371996 -0.105165966 0.10306921 -0.062029656 -0.059154164 0.112259224 0.07521873 0.06714078 -0.027330864 -0.20015733 0.098070346 0.07587204 -0.29537335 0.060290385 0.21667424 0.25564957 -0.15282649 0.19173343 -0.038397837 0.037404634 -0.09911859 -0.12252868 -0.05173501 0.20025286 -0.07698737 -0.14006665 -0.010978615 -0.12683888 -0.3510551 -0.03988298 0.022099454 0.019825734 0.14908454 0.034097563 0.13888186 -0.15411836 0.1463821 -0.14754638 0.14083834 -0.03278605 0.2225317 -0.07475184 -0.12382146 0.23596473 0.06646093 -0.0020261828 0.07476722 0.048806228 -0.11195305 0.018607141 -0.24006638 -0.030050434 0.00020654514 -0.1324189 -0.09670978 -0.032762557 0.036128525 -0.001024994 -0.10066758 -0.10284263 -0.029059485 -0.04274281 0.007938959 -0.27130517 0.067142 0.16339584 0.11026685 0.01832834 0.08044958 0.030969571 0.10666297 -0.08716085 0.040041294 -0.009325864 -0.04269849 -0.05793496 0.3008815 -0.18518133 0.023096614 -0.02891124 0.061460868 0.117818736 -0.13076605 0.18854092 0.13885905 0.035410628 -0.06147473 0.26689613 -0.19091126 -0.16696134 -0.014864096 0.09696676 0.25845084 0.002621778 -0.26138076 0.14169566 -0.08831858 0.07240291
발언 0.1060798 -0.012015905 -0.15694077 -0.065490596 0.05491346 -0.030831939 -0.040232617 0.058562614 0.047779236 0.062611625 -0.005016293 -0.1469506 0.08654239 0.057011712 -0.20033766 0.04165628 0.14957148 0.17307399 -0.105665505 0.11159305 -0.024385687 0.031017458 -0.072329015 -0.08698752 -0.039291546 0.13608788 -0.080467425 -0.0810854 -0.019092007 -0.080516286 -0.24906358 -0.019086454 0.020085512 0.030373594 0.07930947 0.015464139 0.08694029 -0.122370355 0.09336973 -0.086560324 0.08964465 -0.015624493 0.12218236 -0.05675236 -0.07048165 0.14495489 0.048132773 0.011198993 0.06246182 0.031645864 -0.08693329 -0.0015006673 -0.18704613 -0.024353659 -0.01124291 -0.09288745 -0.027707843 -0.019982658 0.029576942 -0.013777159 -0.06074528 -0.06877251 -0.010579395 -0.028468642 -0.008284151 -0.17770295 0.048290946 0.12864693 0.07386981 0.024310276 0.039546847 0.0401424 0.07761696 -0.06564535 0.03738975 -0.008585229 -0.04016186 -0.025846729 0.196663 -0.12378269 0.009229261 -0.012400844 0.035338312 0.08463114 -0.10427796 0.12892166 0.09593311 0.018124957 -0.025503092 0.16026767 -0.14056852 -0.1355812 -0.01834378 0.05626327 0.17011808 0.018008199 -0.17262755 0.09515734 -0.05682074 0.032521177
장관 0.11506128 -0.017796375 -0.18436924 -0.090208255 0.07794338 -0.04365061 -0.043988097 0.08224337 0.05762628 0.061470278 -0.012837648 -0.16914555 0.08760056 0.07497022 -0.2406635 0.046618115 0.18794763 0.21403126 -0.13169503 0.15109167 -0.023691712 0.03459302 -0.08018924 -0.097280554 -0.045429084 0.16608512 -0.08029138 -0.10659416 -0.008445588 -0.098412186 -0.292356 -0.030235758 0.019987129 0.026397897 0.099344045 0.0310725 0.10987197 -0.13911118 0.12775506 -0.1133473 0.116327 -0.028572762 0.16277084 -0.06209615 -0.096524514 0.19641528 0.05596558 -0.0027757846 0.07320345 0.04274653 -0.09165196 0.0020880792 -0.21398023 -0.030017823 -0.0045369146 -0.10685141 -0.06767707 -0.023891829 0.034731865 -0.0026086972 -0.08465886 -0.082683556 -0.015260861 -0.03260122 0.0027313912 -0.22983557 0.05347235 0.13364132 0.08515017 0.01512055 0.05841993 0.027980458 0.08864949 -0.06979546 0.034997668 -0.0018604725 -0.043531068 -0.04586559 0.2546395 -0.14857219 0.020953346 -0.028349904 0.048481155 0.09776292 -0.11230311 0.14821415 0.12186076 0.031959563 -0.03932844 0.20767893 -0.16755456 -0.15322785 -0.01714736 0.07131516 0.21243288 0.0147191 -0.21060826 0.11932618 -0.07002672 0.047938794
국가 0.14488356 -0.018614484 -0.24073438 -0.10017984 0.09919328 -0.0533349 -0.0663296 0.10355146 0.07427221 0.07615373 -0.023012465 -0.19791675 0.09385551 0.09340657 -0.29139718 0.055309817 0.21340296 0.2595123 -0.15763564 0.1813446 -0.031809445 0.037055608 -0.0953271 -0.11320731 -0.048374787 0.19643216 -0.07151961 -0.1277262 -0.014101018 -0.123252206 -0.34592947 -0.029472407 0.029112723 0.020135595 0.13285415 0.039261263 0.13976356 -0.14850317 0.15118144 -0.1469442 0.13984588 -0.0284181 0.21028872 -0.07625245 -0.117037594 0.24058752 0.07109298 -0.014472017 0.07713653 0.048949856 -0.110463396 0.010640508 -0.23984745 -0.03379095 -0.008893313 -0.13411258 -0.10224198 -0.026605027 0.051320147 -0.00026743117 -0.1066437 -0.096899845 -0.01633269 -0.03921488 0.005379338 -0.2736617 0.058936957 0.15526187 0.10614373 0.022832189 0.07539091 0.036289636 0.10462049 -0.07862392 0.04283526 -0.011626944 -0.03940324 -0.04828834 0.29765558 -0.19324356 0.016269367 -0.03969411 0.058834292 0.118668936 -0.123748615 0.18933414 0.14614013 0.04313716 -0.05108368 0.26242298 -0.18796426 -0.16817032 -0.009353154 0.097898625 0.263342 0.006350246 -0.25665426 0.13363102 -0.08548113 0.059302412
본부 0.15691791 -0.03036601 -0.255072 -0.11600519 0.10740584 -0.0610928 -0.07569135 0.12315605 0.084796555 0.08174699 -0.0250621 -0.22034171 0.11094636 0.08713012 -0.32287493 0.059994087 0.24554257 0.28410318 -0.16573773 0.21425217 -0.037008815 0.048775006 -0.10874224 -0.1267067 -0.060599875 0.2245801 -0.08718909 -0.14716524 -0.007194702 -0.13964404 -0.38363576 -0.034332547 0.034196805 0.02547458 0.15237139 0.04297663 0.15318082 -0.16867884 0.16198796 -0.16455068 0.15283841 -0.043495107 0.23950501 -0.07957677 -0.12791224 0.26505098 0.08252825 -0.012565781 0.07550971 0.05177181 -0.1217425 0.016281111 -0.27509034 -0.03577582 -0.0049615665 -0.15342945 -0.10573846 -0.039053507 0.043372873 0.00022433327 -0.108773276 -0.11968899 -0.017484948 -0.045596913 0.012612348 -0.3062999 0.08017289 0.17774938 0.12464046 0.0131605435 0.08716634 0.034361426 0.10981246 -0.09576367 0.04533188 -0.012733435 -0.053724926 -0.05733411 0.33155498 -0.20782784 0.020197641 -0.048491206 0.0764466 0.13307777 -0.14949542 0.21128605 0.15951468 0.040807273 -0.058605857 0.29293728 -0.21346204 -0.18732794 -0.016241252 0.11036989 0.29328343 0.004159077 -0.28506863 0.14951558 -0.09722655 0.077515185
의원 0.13417049 -0.018268064 -0.23323607 -0.10932138 0.09574393 -0.054272417 -0.06730685 0.112447806 0.07625742 0.06929535 -0.02878723 -0.18990692 0.09659838 0.07248261 -0.29293907 0.059591725 0.2160914 0.25420317 -0.15801974 0.18716721 -0.028664324 0.0382594 -0.09466231 -0.11469822 -0.04571377 0.19410917 -0.079053946 -0.12946068 -0.0028519623 -0.12782562 -0.34823415 -0.03853949 0.020334007 0.023316491 0.14644851 0.037016388 0.12869552 -0.1483128 0.14494132 -0.1474762 0.13727108 -0.030418675 0.21287876 -0.07843124 -0.11662916 0.23972757 0.0734243 -0.007672442 0.06438023 0.05010598 -0.10625284 0.018677527 -0.24640998 -0.036972445 -0.006732741 -0.12812346 -0.09457037 -0.03158481 0.040956154 -0.010753926 -0.091782756 -0.10393767 -0.026101014 -0.040136937 0.010014014 -0.27356684 0.07442297 0.16169918 0.11006731 0.016264727 0.08219555 0.036055762 0.101434864 -0.08884423 0.043262362 -0.0033972117 -0.040629186 -0.048516177 0.30193818 -0.18160577 0.023877315 -0.041746207 0.06215269 0.11416765 -0.13087109 0.18884042 0.13024835 0.044980757 -0.05606657 0.25907034 -0.18566601 -0.16733673 -0.0046865735 0.09729323 0.26559764 0.005830635 -0.25490963 0.13146012 -0.085583314 0.0751615
유행 0.124065176 -0.02567195 -0.20877086 -0.10077659 0.09140672 -0.044310406 -0.057943966 0.09582331 0.069965236 0.061404005 -0.028075565 -0.1730957 0.08295447 0.07390963 -0.26915756 0.05626044 0.19180568 0.2360864 -0.13397926 0.1683745 -0.035103295 0.039096113 -0.09382472 -0.10391201 -0.05180031 0.18285972 -0.06361504 -0.11442028 0.00068387314 -0.11896652 -0.31144845 -0.028817406 0.022817789 0.014034617 0.12933676 0.03492337 0.1159017 -0.14685838 0.13591956 -0.12546712 0.12851477 -0.023717614 0.19722809 -0.07119485 -0.11094357 0.2072641 0.06688519 -0.0120051475 0.057048768 0.044089798 -0.10355925 0.013326269 -0.21468842 -0.030977944 0.0022129114 -0.12493732 -0.08559179 -0.03377873 0.031715974 -0.0057416274 -0.08456027 -0.09744598 -0.016546931 -0.03225209 0.00874739 -0.25158945 0.06576651 0.13898207 0.0996759 0.020632325 0.06971779 0.020584617 0.09788247 -0.086220905 0.032865807 -0.009114686 -0.043189675 -0.047356773 0.27294204 -0.17377624 0.011819433 -0.030965209 0.063606985 0.10384803 -0.12175126 0.16339669 0.1176303 0.03980123 -0.05766874 0.22951837 -0.17186013 -0.15254293 -0.009011168 0.09244739 0.23481783 0.006060099 -0.23171133 0.11603722 -0.08202917 0.070912704
점검 0.14405039 -0.021495167 -0.24064326 -0.106379464 0.10028472 -0.053817466 -0.05833228 0.11462167 0.075094424 0.081650205 -0.01956819 -0.20807767 0.09663949 0.09528371 -0.2979292 0.059401006 0.217837 0.26757902 -0.15288897 0.19000404 -0.03388627 0.033814013 -0.09782064 -0.114519514 -0.05307311 0.20989941 -0.07350347 -0.12901938 -0.006686673 -0.12562819 -0.3525419 -0.02678057 0.029684674 0.023974521 0.1378643 0.039318334 0.14226104 -0.15467714 0.15423162 -0.15106617 0.14013486 -0.03865585 0.21632834 -0.07713179 -0.11783852 0.24528743 0.0787506 -0.012092905 0.075919956 0.05336906 -0.10605248 0.00863154 -0.24060243 -0.026264014 -0.0034063004 -0.14642523 -0.098153725 -0.027246661 0.05070158 0.010997669 -0.10739192 -0.10425655 -0.012763324 -0.035267077 0.0103886025 -0.28089058 0.065685354 0.15422933 0.10717693 0.019289548 0.0785309 0.028242351 0.1042202 -0.07976275 0.04684194 -0.014652069 -0.039110065 -0.05827093 0.30250394 -0.19866031 0.014760735 -0.041806262 0.06796735 0.1194671 -0.12900612 0.19593245 0.14540033 0.039497007 -0.053884674 0.26668942 -0.19068968 -0.17361473 -0.013810853 0.096814856 0.27135062 0.0055158744 -0.26696503 0.14274141 -0.09261749 0.066088304
지방 0.12345293 -0.023907403 -0.2212194 -0.107798345 0.09508377 -0.056240045 -0.06766344 0.10069296 0.07670626 0.060062118 -0.033616547 -0.18536136 0.0954837 0.0683416 -0.284939 0.05581854 0.21057466 0.2549471 -0.14682771 0.18508969 -0.032376144 0.047785047 -0.09097504 -0.11482409 -0.045572106 0.1951288 -0.062441055 -0.12629297 -0.01174739 -0.1161622 -0.3250046 -0.0285593 0.018301493 0.024761496 0.14555942 0.042641383 0.12297519 -0.13694985 0.13784297 -0.13546054 0.13706878 -0.025994033 0.20848772 -0.069581985 -0.11060056 0.23207653 0.0718844 -0.0056262184 0.06071478 0.037463088 -0.10074645 0.015677003 -0.23010845 -0.037886325 -0.0015594325 -0.124395065 -0.09248509 -0.03764476 0.034238454 -0.0072465865 -0.09157791 -0.09325611 -0.02702516 -0.029898273 0.015190109 -0.26120564 0.07049834 0.15918401 0.09171751 0.009213402 0.080825776 0.0325794 0.09566464 -0.07604752 0.03846442 0.00018690198 -0.0431737 -0.053514734 0.28779104 -0.16896717 0.017280431 -0.040968098 0.06736979 0.10697017 -0.13369396 0.18254493 0.12458417 0.047702778 -0.04802024 0.25534615 -0.16529858 -0.1522244 -0.003065015 0.09443286 0.25439683 0.0018578648 -0.24457985 0.12030276 -0.08606269 0.066494785
저희 0.13747019 -0.01929307 -0.23755683 -0.1096005 0.104898386 -0.059718806 -0.06398656 0.11560726 0.07949306 0.077778675 -0.027292524 -0.2016807 0.09756455 0.07572708 -0.29445758 0.058676653 0.22546469 0.26190916 -0.16172367 0.19618972 -0.031753007 0.036434896 -0.09817876 -0.11896871 -0.05489213 0.2080703 -0.07720277 -0.1346919 -0.0058133034 -0.12725131 -0.36060357 -0.036887508 0.024506895 0.019238535 0.14741851 0.036685415 0.13922577 -0.15425667 0.15593426 -0.14569165 0.13458295 -0.033817656 0.22837438 -0.07311894 -0.11725395 0.24775821 0.070888475 -0.0036767365 0.07329168 0.050698806 -0.1185869 0.015713532 -0.25108442 -0.033556495 -0.004698689 -0.13505706 -0.09546805 -0.033534754 0.041516826 -0.0009815013 -0.10396731 -0.11351326 -0.03066082 -0.03806043 0.0073098447 -0.28141737 0.07518978 0.15700272 0.11597916 0.018830536 0.07906089 0.037842616 0.105632775 -0.088642314 0.036001425 -0.004581212 -0.04930871 -0.052744962 0.3108552 -0.18879636 0.020957379 -0.039098416 0.06356377 0.11834073 -0.13674076 0.19884448 0.14537379 0.030643294 -0.05468064 0.27280816 -0.1966657 -0.1757036 -0.00629725 0.10538233 0.26337522 0.008381193 -0.26770526 0.14231743 -0.09060912 0.078663565
안보 0.14016387 -0.020838533 -0.22962612 -0.0988032 0.10070528 -0.05046386 -0.06264189 0.10184189 0.07127288 0.07879473 -0.018566923 -0.19977231 0.08695789 0.08927932 -0.28508535 0.05396735 0.21253398 0.2493785 -0.14587323 0.18203099 -0.035339367 0.03570248 -0.0924728 -0.10978231 -0.04779629 0.19720215 -0.07049107 -0.12644912 -0.012388213 -0.120490484 -0.32762772 -0.027047833 0.020955332 0.020969152 0.1300103 0.031877022 0.13140815 -0.14062637 0.14357087 -0.14177123 0.13294275 -0.029074397 0.20271075 -0.07288814 -0.113203555 0.22973369 0.07307583 -0.011273075 0.0694849 0.051697087 -0.101940125 0.009436618 -0.22518848 -0.0278412 -0.0041088057 -0.13487442 -0.100404575 -0.026362896 0.048565023 0.0086156605 -0.10281489 -0.10082398 -0.016634502 -0.03754552 -0.00169177 -0.26794443 0.055559296 0.14919189 0.10692041 0.015136876 0.06930342 0.028193466 0.10363435 -0.08019005 0.035686392 -0.010833542 -0.043262523 -0.056228768 0.29020843 -0.18010464 0.012715777 -0.043930873 0.06825975 0.11056952 -0.124138676 0.17497785 0.13926499 0.038460318 -0.048435975 0.2553564 -0.18234296 -0.15726584 -0.015413113 0.09399226 0.24974062 0.005931121 -0.25037053 0.12811403 -0.08735613 0.060275767
시작 0.13799252 -0.023550374 -0.25246406 -0.11957222 0.09764735 -0.06635121 -0.07027369 0.118470795 0.077903904 0.06890511 -0.03364651 -0.20807624 0.09993312 0.07671537 -0.30359393 0.0515938 0.22244823 0.28253916 -0.16952597 0.19347878 -0.03368982 0.03475959 -0.09590532 -0.12083817 -0.055258695 0.2158638 -0.06938518 -0.15031533 -0.01160525 -0.13386066 -0.36090618 -0.038289286 0.025081798 0.014819162 0.14578323 0.033690766 0.13956434 -0.15686512 0.15181181 -0.16045041 0.14303696 -0.0331236 0.22534697 -0.07511422 -0.12133092 0.24807164 0.07660334 -0.0092224805 0.06791198 0.04298959 -0.106216416 0.01001722 -0.25570044 -0.037904438 -0.0070523 -0.1445598 -0.11377295 -0.032587495 0.028764429 -0.00051382015 -0.1060625 -0.10776472 -0.023517653 -0.040227644 0.013301021 -0.28051713 0.075757496 0.17543076 0.11292666 0.013384235 0.0904995 0.03881705 0.11020258 -0.09495591 0.043824654 -0.004972607 -0.04279016 -0.059127748 0.32964367 -0.1880602 0.023962473 -0.042458363 0.06933302 0.12134293 -0.13786161 0.19706209 0.13723354 0.03475875 -0.064533755 0.27621046 -0.19909616 -0.17196107 -0.015496719 0.106895596 0.27769315 0.0051676426 -0.2696128 0.13638592 -0.092676334 0.071713574
얘기 0.13262287 -0.023859706 -0.2389406 -0.10553969 0.10256833 -0.05543209 -0.060031626 0.11512625 0.074945755 0.069117345 -0.028811276 -0.20629393 0.099211104 0.082648605 -0.28705996 0.05817978 0.2213312 0.26066214 -0.16346738 0.19232637 -0.03480782 0.0432909 -0.09636478 -0.1148931 -0.04845353 0.20524982 -0.079240695 -0.13781044 -0.009915143 -0.12569791 -0.3550857 -0.035561305 0.026972149 0.020453067 0.14083116 0.039090738 0.13188341 -0.15676218 0.14739442 -0.14754586 0.13322237 -0.029606983 0.22117284 -0.072320916 -0.119643636 0.24613295 0.072385885 0.0006851627 0.07401511 0.04862112 -0.11404095 0.01841502 -0.24279468 -0.025743432 -0.0061628935 -0.13754994 -0.10055184 -0.031367503 0.036468286 -0.0045080995 -0.09786078 -0.10285397 -0.025706137 -0.042689774 0.00026971282 -0.27485648 0.073384255 0.16214132 0.106773496 0.022963954 0.07902073 0.030264178 0.10224062 -0.0893607 0.035748888 -0.006509662 -0.047390472 -0.04925324 0.30825707 -0.18677765 0.014414125 -0.04048944 0.070645705 0.11509789 -0.13838759 0.19369033 0.1390822 0.030797778 -0.05505631 0.25864583 -0.19750914 -0.1735341 -0.014704638 0.09608751 0.26419145 0.010810317 -0.2637914 0.13836959 -0.083773024 0.07250184
경제 0.10926535 -0.021071471 -0.18408538 -0.08210503 0.08158085 -0.049614664 -0.042397477 0.088961035 0.057491086 0.054695632 -0.012514269 -0.16194943 0.08033938 0.061595947 -0.24184617 0.0430973 0.17851982 0.20432106 -0.120127186 0.14195023 -0.028247904 0.032834113 -0.076836124 -0.100157805 -0.039045162 0.1576708 -0.07089986 -0.10226289 -0.008042833 -0.097021386 -0.2804296 -0.021729052 0.01774893 0.017171083 0.10387483 0.022791786 0.10849322 -0.12619404 0.121797174 -0.115280375 0.10784653 -0.024361486 0.17051668 -0.058234684 -0.09489091 0.19390711 0.061712243 -0.009052467 0.062936865 0.0442293 -0.085680746 0.0057679126 -0.2000266 -0.02807572 -0.0038739524 -0.10388215 -0.07635274 -0.020145835 0.031082813 0.0042470987 -0.075417794 -0.07886361 -0.0127903065 -0.037401475 -0.00017404565 -0.22128083 0.057857126 0.13800868 0.08344824 0.017110668 0.070248105 0.0295014 0.08864924 -0.07000357 0.033985026 -0.0015988431 -0.03575376 -0.035355877 0.2466385 -0.14947526 0.02089411 -0.030702813 0.052916665 0.09064778 -0.113125235 0.14997938 0.11743438 0.024031974 -0.041215006 0.20606686 -0.15676299 -0.14303944 -0.0072255153 0.07376687 0.21820077 0.0074333716 -0.20420618 0.10778919 -0.07066945 0.04632585
토론회 0.13053344 -0.023775635 -0.2268211 -0.09950357 0.09502681 -0.057998594 -0.06379507 0.101768866 0.077959485 0.07274934 -0.017902995 -0.1891491 0.09732981 0.07866554 -0.28326777 0.056470927 0.21047391 0.2509085 -0.14556135 0.18216696 -0.04050262 0.04818608 -0.088316984 -0.11086721 -0.051496197 0.20406298 -0.07360125 -0.12757508 -0.00059658726 -0.12753385 -0.34216955 -0.034803323 0.027385041 0.024152435 0.13109416 0.03514199 0.1324038 -0.14604641 0.14367576 -0.15199512 0.13322708 -0.026074013 0.21697134 -0.07221951 -0.12354525 0.22675462 0.074843414 -0.015957335 0.068269394 0.04102534 -0.10778409 0.018781053 -0.24950284 -0.026925808 0.00095049175 -0.13489375 -0.101389036 -0.029675882 0.03014735 -0.00387909 -0.08652421 -0.09784192 -0.023760378 -0.034112982 0.01156844 -0.27849293 0.07751094 0.15973206 0.103481576 0.010753119 0.08539843 0.041483793 0.09158839 -0.084769376 0.03281194 -0.002163315 -0.048438884 -0.050379176 0.28980243 -0.18760502 0.03005528 -0.047049467 0.055195868 0.10761084 -0.13280022 0.1778415 0.13481106 0.03855667 -0.06272394 0.2575755 -0.18334028 -0.17292097 -0.011547511 0.09757648 0.2646926 0.0072870916 -0.25632846 0.13129717 -0.0808686 0.06881759
오클랜드 0.14633495 -0.031308517 -0.27053925 -0.13140897 0.10611056 -0.07690679 -0.0637588 0.12849851 0.08951479 0.07255214 -0.026640613 -0.21163695 0.10115426 0.08547211 -0.3266046 0.057055827 0.23998591 0.2911683 -0.18296114 0.20787142 -0.03485305 0.042648215 -0.10476455 -0.12464608 -0.055995572 0.2242228 -0.06933474 -0.15552396 -0.011046842 -0.14667207 -0.38637897 -0.04306109 0.029489217 0.010498425 0.15478541 0.029716477 0.14486584 -0.16544089 0.15588978 -0.16802813 0.15216345 -0.040407985 0.24528015 -0.08014725 -0.12570032 0.26816297 0.08287548 -0.00499709 0.069083296 0.049267113 -0.11480557 0.010823196 -0.26586053 -0.047410764 -0.004087339 -0.15540718 -0.12200539 -0.033172138 0.034074854 0.0032388314 -0.11597785 -0.122019865 -0.022103425 -0.035813257 0.020841125 -0.2959038 0.07637155 0.17664604 0.115523495 0.013497388 0.09236644 0.034709357 0.11737279 -0.103321165 0.039936874 -0.01263037 -0.048726935 -0.055423804 0.34933156 -0.19589034 0.026350703 -0.035231806 0.07130318 0.12379172 -0.14663997 0.21797149 0.14414354 0.03575913 -0.07022036 0.28956166 -0.20191163 -0.18719196 -0.021746617 0.116319366 0.297334 0.011278711 -0.27818894 0.14084128 -0.10369851 0.07588615
상황 0.1312992 -0.015373506 -0.22133417 -0.095385484 0.09726661 -0.0626294 -0.06297535 0.10747023 0.069055185 0.06918664 -0.027807156 -0.19397566 0.09100992 0.07682857 -0.28169596 0.051952392 0.21451214 0.24701643 -0.15142287 0.18661626 -0.033872444 0.038415488 -0.09823014 -0.11746896 -0.051577777 0.1910063 -0.077675134 -0.12961084 -0.011406011 -0.1208042 -0.33581537 -0.035123274 0.019296648 0.02255286 0.13717848 0.02960133 0.12821192 -0.14949371 0.14376241 -0.14456382 0.12782131 -0.038314935 0.21013875 -0.07299326 -0.118066 0.23449668 0.06552873 0.00024473204 0.07157153 0.039346695 -0.10469132 0.020397326 -0.2349259 -0.032486156 -0.0045510973 -0.12720491 -0.09373396 -0.035776988 0.041526392 0.004173389 -0.09399834 -0.10172074 -0.024585173 -0.037220616 0.0061289906 -0.26739562 0.06535856 0.15696424 0.1033863 0.021959795 0.08145623 0.0316395 0.09424199 -0.082159884 0.0355188 -0.009679103 -0.044076804 -0.052609928 0.29390717 -0.17632648 0.02145884 -0.034029327 0.0619788 0.11087765 -0.13556671 0.18198916 0.13629882 0.036633566 -0.057023063 0.24613503 -0.18860304 -0.16363811 -0.0067908172 0.096145414 0.25819752 0.005488138 -0.25677937 0.13113067 -0.08809037 0.067232154
정책 0.14344536 -0.027787017 -0.24814966 -0.10478645 0.1105247 -0.061547913 -0.07215769 0.11836685 0.07688547 0.083399005 -0.024599366 -0.21304467 0.109583296 0.086534046 -0.31228307 0.055998497 0.24284954 0.2812354 -0.1664238 0.20497613 -0.03789751 0.048662186 -0.10252724 -0.12296943 -0.058219414 0.21733852 -0.08610954 -0.13867114 -0.00868292 -0.13544618 -0.38055694 -0.040418625 0.023175158 0.020607656 0.14706759 0.037282776 0.14497273 -0.1621365 0.16366617 -0.15503776 0.14657934 -0.0380642 0.23502538 -0.083145894 -0.13135585 0.25220096 0.07956798 -0.01265985 0.07415657 0.04890421 -0.113294855 0.015630689 -0.26640552 -0.031386912 -0.0038378497 -0.14514464 -0.10592853 -0.032049425 0.0427514 0.0017421737 -0.104061715 -0.106125705 -0.02231614 -0.037969165 0.009195513 -0.2983723 0.079866394 0.18091285 0.1153974 0.01889471 0.0873349 0.035148814 0.10516054 -0.09809193 0.048805684 -0.005597243 -0.048230603 -0.053084724 0.3246308 -0.19732706 0.021147875 -0.046011325 0.066900566 0.122107446 -0.14812191 0.20616968 0.15167691 0.040041998 -0.062094636 0.28310725 -0.21070865 -0.18615429 -0.017314533 0.103535905 0.2920366 0.006908232 -0.28030476 0.14480212 -0.08830758 0.07194348
계약 0.14412464 -0.025154812 -0.238095 -0.11340019 0.09665303 -0.05715414 -0.06796763 0.11828939 0.08148707 0.06829825 -0.02461747 -0.19501525 0.10833039 0.06997669 -0.2841832 0.058013864 0.21096806 0.25953 -0.15436536 0.19969136 -0.03331179 0.03774491 -0.09603624 -0.11413956 -0.044786528 0.19237605 -0.06929113 -0.12671928 0.003561982 -0.12371417 -0.3410176 -0.030934824 0.027682116 0.02731129 0.14361009 0.036927953 0.13187137 -0.15188918 0.13656735 -0.14409007 0.1309696 -0.046909876 0.20822938 -0.08721599 -0.12582582 0.2388028 0.0772196 -0.0072315824 0.06735757 0.046557516 -0.10879055 0.017279746 -0.24393328 -0.02509347 -0.0016589679 -0.13888676 -0.09344996 -0.04400375 0.045267954 0.0017501321 -0.10540313 -0.10664389 -0.026568664 -0.043654602 -0.002307155 -0.28117082 0.0669496 0.16151913 0.10116597 0.02516666 0.08360685 0.022876548 0.1183049 -0.08553952 0.038506225 -0.0033421325 -0.033353947 -0.054173045 0.31055444 -0.1871988 0.016685588 -0.030816166 0.060474925 0.12087002 -0.14258239 0.18095194 0.1303542 0.04022676 -0.06655636 0.25784016 -0.19408469 -0.17803788 0.0005149025 0.096406534 0.25352216 0.008297765 -0.26194912 0.13374771 -0.090701 0.078086555
회의실 0.10126519 -0.0034937686 -0.15601376 -0.06901263 0.05511349 -0.036556337 -0.03627818 0.06706284 0.04279916 0.06289349 -0.009133293 -0.14934777 0.08419562 0.06668897 -0.20298168 0.03894381 0.14786161 0.18279275 -0.10469857 0.11511041 -0.018350892 0.026714856 -0.07381618 -0.08872263 -0.04181425 0.13860944 -0.06814214 -0.080430046 -0.015571176 -0.07665852 -0.24599868 -0.021930043 0.019167762 0.026418818 0.08056198 0.013666573 0.09503914 -0.113997154 0.0975468 -0.08330394 0.09182064 -0.018951574 0.12907878 -0.049193714 -0.075744554 0.1509661 0.051327407 0.0039865416 0.05981469 0.037957318 -0.078415334 -0.005562401 -0.18783887 -0.028842459 -0.006771919 -0.091540806 -0.034115054 -0.018413603 0.035325255 -0.0041281297 -0.07051583 -0.068840966 -0.013634053 -0.035297737 -0.011693353 -0.18260214 0.047031455 0.12112761 0.074937634 0.016698701 0.0375765 0.034930073 0.0749574 -0.06056165 0.03738803 -0.0117272725 -0.039615728 -0.03215734 0.19673501 -0.120756224 0.018513521 -0.012497566 0.030676693 0.077840336 -0.104188114 0.13018739 0.09183488 0.022871744 -0.03227667 0.16444476 -0.144878 -0.13436571 -0.011210377 0.0526689 0.1758337 0.013999539 -0.16771977 0.092510745 -0.052986283 0.028694218
확대 0.14574285 -0.028301934 -0.24611089 -0.10393863 0.10182986 -0.06347426 -0.07120082 0.11877032 0.070360675 0.07246464 -0.02655734 -0.20784542 0.10914771 0.09202907 -0.3045922 0.05367729 0.24388996 0.27857804 -0.15993288 0.1933821 -0.03466328 0.043773636 -0.09997817 -0.13494462 -0.05203798 0.22583771 -0.07919746 -0.14033651 -0.0035940728 -0.14177534 -0.37368575 -0.038496017 0.019358063 0.024692481 0.1422481 0.042741716 0.1467285 -0.17155562 0.15855642 -0.15317418 0.14590183 -0.034405995 0.22695266 -0.0734826 -0.12291505 0.25892806 0.0737605 -0.0046832496 0.07388681 0.05877816 -0.11241953 0.020756708 -0.26855582 -0.028960085 0.0034267276 -0.14202574 -0.112821594 -0.04136372 0.037488338 0.00045718154 -0.09818966 -0.09876588 -0.017381132 -0.043439325 0.019291228 -0.29559264 0.07639961 0.17472593 0.11627438 0.025627095 0.08848272 0.039017525 0.108348966 -0.09833555 0.04644159 0.0011841902 -0.050033543 -0.056505136 0.3281579 -0.18943259 0.019488709 -0.050225824 0.067733705 0.121790245 -0.13909347 0.20147903 0.1454621 0.04194764 -0.058163576 0.27688792 -0.20552431 -0.17930834 -0.012802674 0.10726768 0.28796038 0.018040147 -0.26985887 0.14606151 -0.08509114 0.06375013
환경 0.12865546 -0.017417084 -0.21053953 -0.089635 0.09932676 -0.051070437 -0.054596722 0.101413906 0.07276373 0.07156987 -0.02011204 -0.18918212 0.08792238 0.07051738 -0.26950827 0.054294325 0.19523785 0.2323634 -0.14359938 0.171642 -0.03310163 0.030518297 -0.08832352 -0.11023337 -0.041896075 0.18849187 -0.065629974 -0.12733366 -0.013016955 -0.118231595 -0.32201236 -0.031788174 0.029750343 0.02117414 0.13277091 0.026961818 0.12610313 -0.13643478 0.13799396 -0.13182193 0.11943845 -0.03300558 0.19145632 -0.07163875 -0.106286086 0.22429544 0.06670747 -0.0005716945 0.06987885 0.037070815 -0.10224229 0.010885273 -0.21779855 -0.030950794 -0.007023531 -0.122481436 -0.091358766 -0.030112686 0.036126345 -0.0024986668 -0.08841391 -0.100651085 -0.02233181 -0.038213767 -0.003185518 -0.25132608 0.06619129 0.14914478 0.103341274 0.016119817 0.07714172 0.027319454 0.09625176 -0.07692068 0.02951086 -0.012390622 -0.043814007 -0.04323061 0.2799465 -0.16889161 0.015834522 -0.027061557 0.057458613 0.10843543 -0.12167763 0.16946696 0.130967 0.02374774 -0.056577604 0.24202152 -0.17414765 -0.15321046 -0.011255011 0.0907195 0.23970656 0.0073872767 -0.23924668 0.12866661 -0.07302112 0.06549876
입장 0.10693112 -0.016240437 -0.17201032 -0.07457082 0.074939445 -0.041923687 -0.04648149 0.080687895 0.059911046 0.05889998 -0.012892988 -0.15766011 0.080639265 0.059151344 -0.22159138 0.041891005 0.16551255 0.19695388 -0.110351436 0.13713723 -0.022136884 0.025955297 -0.07979031 -0.09287071 -0.044128116 0.15491863 -0.06301177 -0.09753056 -0.009935737 -0.09138311 -0.26298717 -0.02871041 0.023954367 0.020008394 0.101756446 0.029671533 0.099223755 -0.11847339 0.11051107 -0.109861925 0.10522568 -0.026883272 0.1533953 -0.06300538 -0.08730926 0.17240383 0.05221703 0.00063270517 0.057416175 0.041791294 -0.086593784 0.009112899 -0.19691798 -0.026783582 -0.007493695 -0.10606294 -0.062738374 -0.028899262 0.030260995 -0.0008639443 -0.07434396 -0.07777046 -0.013846233 -0.02831065 -0.00856101 -0.20201142 0.054152068 0.123254515 0.0872939 0.022272617 0.057193898 0.026417319 0.07725115 -0.06431484 0.0384509 -0.0033709572 -0.041420363 -0.034667607 0.22575517 -0.14569815 0.014731907 -0.023093998 0.050031338 0.09251273 -0.11021664 0.14450045 0.10711947 0.020933846 -0.03932684 0.18731476 -0.14779651 -0.13721655 -0.0063772467 0.066761225 0.19513337 0.005693413 -0.19464363 0.09857671 -0.06095677 0.047977712
정관 0.13533124 -0.020840734 -0.2368685 -0.097328365 0.09677329 -0.060542267 -0.06753881 0.11221929 0.07663447 0.07428097 -0.023823129 -0.20033377 0.0981348 0.080206715 -0.28773797 0.06469701 0.2229019 0.25279403 -0.15655388 0.1872912 -0.034626305 0.037234128 -0.10307588 -0.11784566 -0.047153708 0.20489742 -0.07888202 -0.13556503 -0.010356035 -0.13017379 -0.34798524 -0.04085272 0.022116784 0.023937428 0.14450407 0.03022315 0.1361213 -0.15512392 0.15439959 -0.1513091 0.13896202 -0.036748834 0.21322767 -0.06918599 -0.119914636 0.24439707 0.07517768 -0.006094358 0.071937196 0.038519632 -0.117876485 0.021035563 -0.24290186 -0.029985702 -0.010492026 -0.12961318 -0.09275136 -0.02967297 0.035645984 -0.005057556 -0.096643396 -0.103443496 -0.021404358 -0.038117543 -0.0037861678 -0.2756796 0.07110521 0.15389597 0.113051794 0.015381819 0.077664495 0.02946433 0.10545249 -0.09173951 0.04032953 -0.005092457 -0.04456602 -0.05482526 0.30645338 -0.18441908 0.022109877 -0.036644425 0.06601366 0.11305207 -0.13992506 0.18865988 0.1399256 0.029978113 -0.056558315 0.2576012 -0.19387498 -0.16724043 -0.011048696 0.09526751 0.26527226 0.008335816 -0.2605012 0.13271071 -0.09129548 0.07278102
문제 0.13827151 -0.021618696 -0.2420398 -0.10854159 0.10024125 -0.06501784 -0.069146074 0.11109073 0.08493948 0.06983504 -0.0292122 -0.21249399 0.106734075 0.08186342 -0.30558527 0.059108797 0.22848894 0.27266875 -0.16466925 0.19844542 -0.032806825 0.035824616 -0.10110262 -0.12384157 -0.05062524 0.21220504 -0.08097079 -0.14546502 -0.01029782 -0.13150503 -0.36273733 -0.033991367 0.028687824 0.017518856 0.14802378 0.03922205 0.14245412 -0.16609465 0.15756235 -0.15838194 0.14963682 -0.0366732 0.22574228 -0.08367375 -0.121029004 0.25310975 0.076238655 -0.0007607262 0.08039406 0.05243898 -0.113101 0.014134583 -0.25778228 -0.036712456 -0.008605888 -0.14674461 -0.09618484 -0.041743953 0.040689047 0.00074031967 -0.10286242 -0.11243023 -0.021338647 -0.043566562 0.0033484655 -0.29222134 0.07093617 0.16751102 0.11850434 0.017099053 0.083958745 0.037953712 0.115306936 -0.09918403 0.04535062 -0.00708052 -0.045965627 -0.06045223 0.31412593 -0.19374023 0.024156261 -0.042814624 0.07351761 0.12731758 -0.146662 0.20138383 0.14073364 0.038809232 -0.05825303 0.27247095 -0.19955453 -0.17691635 -0.011973942 0.106862925 0.27540472 0.0069438084 -0.2784247 0.14263113 -0.09464306 0.07597798
